%YAML:1.0
opencv_ml_dtree:
   format: 3
   is_classifier: 1
   var_all: 4
   var_count: 3
   ord_var_count: 3
   cat_var_count: 1
   training_params:
      use_surrogates: 0
      max_categories: 2
      regression_accuracy: 9.9999997764825821e-03
      max_depth: 7
      min_sample_count: 10
      cross_validation_folds: 0
      priors: !!opencv-matrix
         rows: 1
         cols: 2
         dt: f
         data: [ 1., 1. ]
   global_var_idx: 1
   var_idx: [ 0, 1, 2 ]
   var_type: [ 0, 0, 0, 1 ]
   cat_ofs: [ 0, 0, 0, 0, 0, 0 ]
   class_labels: [ 0, 1 ]
   missing_subst: [ 0., 0., 0., 0. ]
   nodes:
      -
         depth: 0
         value: 1.
         norm_class_idx: 1
         splits:
            - { var:0, quality:1.3065497500000000e+06,
                le:8.9949996948242188e+01 }
      -
         depth: 1
         value: 0.
         norm_class_idx: 0
         splits:
            - { var:0, quality:2.6158834375000000e+05,
                le:2.9349998474121094e+01 }
      -
         depth: 2
         value: 0.
         norm_class_idx: 0
         splits:
            - { var:0, quality:1.0125427343750000e+05,
                le:2.7500000000000000e+01 }
      -
         depth: 3
         value: 0.
         norm_class_idx: 0
         splits:
            - { var:0, quality:9.5111789062500000e+04,
                le:2.6150001525878906e+01 }
      -
         depth: 4
         value: 0.
         norm_class_idx: 0
         splits:
            - { var:0, quality:9.0604187500000000e+04,
                le:2.5650001525878906e+01 }
      -
         depth: 5
         value: 0.
         norm_class_idx: 0
         splits:
            - { var:0, quality:88554., le:2.5250000000000000e+01 }
      -
         depth: 6
         value: 0.
         norm_class_idx: 0
         splits:
            - { var:0, quality:87210., le:2.4250000000000000e+01 }
      -
         depth: 7
         value: 0.
         norm_class_idx: 0
      -
         depth: 7
         value: 0.
         norm_class_idx: 0
      -
         depth: 6
         value: 0.
         norm_class_idx: 0
         splits:
            - { var:2, quality:1.3440465087890625e+03,
                le:5.3500003814697266e+00 }
      -
         depth: 7
         value: 0.
         norm_class_idx: 0
      -
         depth: 7
         value: 0.
         norm_class_idx: 0
      -
         depth: 5
         value: 0.
         norm_class_idx: 0
         splits:
            - { var:1, quality:2.0509606933593750e+03,
                le:2.8750000000000000e+01 }
      -
         depth: 6
         value: 0.
         norm_class_idx: 0
         splits:
            - { var:1, quality:3.8180697631835938e+02,
                le:2.7150001525878906e+01 }
      -
         depth: 7
         value: 0.
         norm_class_idx: 0
      -
         depth: 7
         value: 0.
         norm_class_idx: 0
      -
         depth: 6
         value: 0.
         norm_class_idx: 0
      -
         depth: 4
         value: 0.
         norm_class_idx: 0
         splits:
            - { var:1, quality:4.5253242187500000e+03,
                le:2.9650001525878906e+01 }
      -
         depth: 5
         value: 0.
         norm_class_idx: 0
         splits:
            - { var:1, quality:6.9493310546875000e+02,
                le:2.6500000000000000e+01 }
      -
         depth: 6
         value: 0.
         norm_class_idx: 0
         splits:
            - { var:1, quality:2.4706451416015625e+02,
                le:2.6250000000000000e+01 }
      -
         depth: 7
         value: 0.
         norm_class_idx: 0
      -
         depth: 7
         value: 0.
         norm_class_idx: 0
      -
         depth: 6
         value: 0.
         norm_class_idx: 0
         splits:
            - { var:2, quality:4.5225503540039062e+02,
                le:7.3500003814697266e+00 }
      -
         depth: 7
         value: 0.
         norm_class_idx: 0
      -
         depth: 7
         value: 0.
         norm_class_idx: 0
      -
         depth: 5
         value: 0.
         norm_class_idx: 0
         splits:
            - { var:2, quality:3.8406657714843750e+03,
                le:9.3500003814697266e+00 }
      -
         depth: 6
         value: 0.
         norm_class_idx: 0
         splits:
            - { var:2, quality:3.1694769287109375e+02,
                le:8.3500003814697266e+00 }
      -
         depth: 7
         value: 0.
         norm_class_idx: 0
      -
         depth: 7
         value: 0.
         norm_class_idx: 0
      -
         depth: 6
         value: 0.
         norm_class_idx: 0
      -
         depth: 3
         value: 0.
         norm_class_idx: 0
         splits:
            - { var:2, quality:6.4447250976562500e+03,
                le:1.0250000000000000e+01 }
      -
         depth: 4
         value: 0.
         norm_class_idx: 0
         splits:
            - { var:2, quality:1.4519427490234375e+03,
                le:7.9499998092651367e+00 }
      -
         depth: 5
         value: 0.
         norm_class_idx: 0
         splits:
            - { var:2, quality:7.8277557373046875e+02,
                le:7.5000000000000000e+00 }
      -
         depth: 6
         value: 0.
         norm_class_idx: 0
         splits:
            - { var:2, quality:6.5598773193359375e+02,
                le:7.1499996185302734e+00 }
      -
         depth: 7
         value: 0.
         norm_class_idx: 0
      -
         depth: 7
         value: 0.
         norm_class_idx: 0
      -
         depth: 6
         value: 0.
         norm_class_idx: 0
         splits:
            - { var:1, quality:1.3352090454101562e+02,
                le:2.9950000762939453e+01 }
      -
         depth: 7
         value: 0.
         norm_class_idx: 0
      -
         depth: 7
         value: 0.
         norm_class_idx: 0
      -
         depth: 5
         value: 0.
         norm_class_idx: 0
         splits:
            - { var:1, quality:7.9090997314453125e+02,
                le:3.2500000000000000e+01 }
      -
         depth: 6
         value: 1.
         norm_class_idx: 1
         splits:
            - { var:0, quality:5.7736077880859375e+02,
                le:2.8250000000000000e+01 }
      -
         depth: 7
         value: 0.
         norm_class_idx: 0
      -
         depth: 7
         value: 1.
         norm_class_idx: 1
      -
         depth: 6
         value: 0.
         norm_class_idx: 0
         splits:
            - { var:1, quality:2.3793168640136719e+02,
                le:3.3150001525878906e+01 }
      -
         depth: 7
         value: 0.
         norm_class_idx: 0
      -
         depth: 7
         value: 0.
         norm_class_idx: 0
      -
         depth: 4
         value: 0.
         norm_class_idx: 0
         splits:
            - { var:2, quality:5.1798540039062500e+03,
                le:1.0500000000000000e+01 }
      -
         depth: 5
         value: 0.
         norm_class_idx: 0
         splits:
            - { var:0, quality:6.9899696350097656e+01,
                le:2.8750000000000000e+01 }
      -
         depth: 6
         value: 0.
         norm_class_idx: 0
         splits:
            - { var:0, quality:4.5181819915771484e+01,
                le:2.8349998474121094e+01 }
      -
         depth: 7
         value: 0.
         norm_class_idx: 0
      -
         depth: 7
         value: 0.
         norm_class_idx: 0
      -
         depth: 6
         value: 0.
         norm_class_idx: 0
         splits:
            - { var:1, quality:2.7600000381469727e+01,
                le:3.3250000000000000e+01 }
      -
         depth: 7
         value: 0.
         norm_class_idx: 0
      -
         depth: 7
         value: 0.
         norm_class_idx: 0
      -
         depth: 5
         value: 0.
         norm_class_idx: 0
         splits:
            - { var:2, quality:5.1140170898437500e+03,
                le:1.0949999809265137e+01 }
      -
         depth: 6
         value: 0.
         norm_class_idx: 0
         splits:
            - { var:1, quality:1.7904869079589844e+02,
                le:3.0849998474121094e+01 }
      -
         depth: 7
         value: 0.
         norm_class_idx: 0
      -
         depth: 7
         value: 0.
         norm_class_idx: 0
      -
         depth: 6
         value: 0.
         norm_class_idx: 0
         splits:
            - { var:1, quality:4.9361430664062500e+03,
                le:2.9349998474121094e+01 }
      -
         depth: 7
         value: 0.
         norm_class_idx: 0
      -
         depth: 7
         value: 0.
         norm_class_idx: 0
      -
         depth: 2
         value: 0.
         norm_class_idx: 0
         splits:
            - { var:2, quality:1.6853526562500000e+05,
                le:2.6250000000000000e+01 }
      -
         depth: 3
         value: 0.
         norm_class_idx: 0
         splits:
            - { var:0, quality:1.3204921875000000e+05,
                le:6.1950000762939453e+01 }
      -
         depth: 4
         value: 0.
         norm_class_idx: 0
         splits:
            - { var:2, quality:1.1353651562500000e+05,
                le:1.3750000000000000e+01 }
      -
         depth: 5
         value: 1.
         norm_class_idx: 1
         splits:
            - { var:2, quality:2.7422179687500000e+04,
                le:8.1499996185302734e+00 }
      -
         depth: 6
         value: 0.
         norm_class_idx: 0
         splits:
            - { var:0, quality:4.4305356445312500e+03,
                le:3.5150001525878906e+01 }
      -
         depth: 7
         value: 0.
         norm_class_idx: 0
      -
         depth: 7
         value: 0.
         norm_class_idx: 0
      -
         depth: 6
         value: 1.
         norm_class_idx: 1
         splits:
            - { var:2, quality:2.4753183593750000e+04,
                le:1.1949999809265137e+01 }
      -
         depth: 7
         value: 1.
         norm_class_idx: 1
      -
         depth: 7
         value: 0.
         norm_class_idx: 0
      -
         depth: 5
         value: 0.
         norm_class_idx: 0
         splits:
            - { var:0, quality:9.0616750000000000e+04,
                le:5.3049999237060547e+01 }
      -
         depth: 6
         value: 0.
         norm_class_idx: 0
         splits:
            - { var:2, quality:7.7579562500000000e+04,
                le:1.5649999618530273e+01 }
      -
         depth: 7
         value: 0.
         norm_class_idx: 0
      -
         depth: 7
         value: 0.
         norm_class_idx: 0
      -
         depth: 6
         value: 0.
         norm_class_idx: 0
         splits:
            - { var:2, quality:1.7170828125000000e+04,
                le:1.7849998474121094e+01 }
      -
         depth: 7
         value: 1.
         norm_class_idx: 1
      -
         depth: 7
         value: 0.
         norm_class_idx: 0
      -
         depth: 4
         value: 1.
         norm_class_idx: 1
         splits:
            - { var:2, quality:3.4251644531250000e+04,
                le:1.5649999618530273e+01 }
      -
         depth: 5
         value: 0.
         norm_class_idx: 0
         splits:
            - { var:2, quality:4.4683706054687500e+03,
                le:1.4750000000000000e+01 }
      -
         depth: 6
         value: 0.
         norm_class_idx: 0
         splits:
            - { var:2, quality:4.1042211914062500e+03,
                le:1.3850000381469727e+01 }
      -
         depth: 7
         value: 0.
         norm_class_idx: 0
      -
         depth: 7
         value: 0.
         norm_class_idx: 0
      -
         depth: 6
         value: 0.
         norm_class_idx: 0
         splits:
            - { var:0, quality:4.9816390991210938e+02,
                le:6.5350006103515625e+01 }
      -
         depth: 7
         value: 1.
         norm_class_idx: 1
      -
         depth: 7
         value: 0.
         norm_class_idx: 0
      -
         depth: 5
         value: 1.
         norm_class_idx: 1
         splits:
            - { var:0, quality:3.0774505859375000e+04,
                le:7.0649993896484375e+01 }
      -
         depth: 6
         value: 1.
         norm_class_idx: 1
         splits:
            - { var:2, quality:1.1324804687500000e+04,
                le:1.9950000762939453e+01 }
      -
         depth: 7
         value: 1.
         norm_class_idx: 1
      -
         depth: 7
         value: 0.
         norm_class_idx: 0
      -
         depth: 6
         value: 1.
         norm_class_idx: 1
         splits:
            - { var:2, quality:2.2014027343750000e+04,
                le:1.7750000000000000e+01 }
      -
         depth: 7
         value: 0.
         norm_class_idx: 0
      -
         depth: 7
         value: 1.
         norm_class_idx: 1
      -
         depth: 3
         value: 0.
         norm_class_idx: 0
         splits:
            - { var:0, quality:5.4215902343750000e+04,
                le:8.6649993896484375e+01 }
      -
         depth: 4
         value: 0.
         norm_class_idx: 0
         splits:
            - { var:0, quality:5.1965703125000000e+04,
                le:7.1149993896484375e+01 }
      -
         depth: 5
         value: 0.
         norm_class_idx: 0
         splits:
            - { var:0, quality:3.3051484375000000e+04,
                le:7.0250000000000000e+01 }
      -
         depth: 6
         value: 0.
         norm_class_idx: 0
         splits:
            - { var:0, quality:3.1553099609375000e+04,
                le:6.9750000000000000e+01 }
      -
         depth: 7
         value: 0.
         norm_class_idx: 0
      -
         depth: 7
         value: 0.
         norm_class_idx: 0
      -
         depth: 6
         value: 0.
         norm_class_idx: 0
         splits:
            - { var:2, quality:1.5128967285156250e+03,
                le:2.8750000000000000e+01 }
      -
         depth: 7
         value: 0.
         norm_class_idx: 0
      -
         depth: 7
         value: 0.
         norm_class_idx: 0
      -
         depth: 5
         value: 0.
         norm_class_idx: 0
         splits:
            - { var:2, quality:1.9862005859375000e+04,
                le:3.0250000000000000e+01 }
      -
         depth: 6
         value: 0.
         norm_class_idx: 0
         splits:
            - { var:1, quality:1.4655493164062500e+03,
                le:8.8850006103515625e+01 }
      -
         depth: 7
         value: 1.
         norm_class_idx: 1
      -
         depth: 7
         value: 0.
         norm_class_idx: 0
      -
         depth: 6
         value: 0.
         norm_class_idx: 0
         splits:
            - { var:2, quality:1.8574250000000000e+04,
                le:3.1849998474121094e+01 }
      -
         depth: 7
         value: 0.
         norm_class_idx: 0
      -
         depth: 7
         value: 0.
         norm_class_idx: 0
      -
         depth: 4
         value: 0.
         norm_class_idx: 0
         splits:
            - { var:2, quality:4.1178237304687500e+03,
                le:3.0349998474121094e+01 }
      -
         depth: 5
         value: 1.
         norm_class_idx: 1
         splits:
            - { var:1, quality:1.5883730468750000e+03,
                le:1.0294999694824219e+02 }
      -
         depth: 6
         value: 1.
         norm_class_idx: 1
         splits:
            - { var:1, quality:1.5908623046875000e+03,
                le:9.1149993896484375e+01 }
      -
         depth: 7
         value: 0.
         norm_class_idx: 0
      -
         depth: 7
         value: 1.
         norm_class_idx: 1
      -
         depth: 6
         value: 0.
         norm_class_idx: 0
         splits:
            - { var:1, quality:2.8500000000000000e+01,
                le:1.0405000305175781e+02 }
      -
         depth: 7
         value: 0.
         norm_class_idx: 0
      -
         depth: 7
         value: 0.
         norm_class_idx: 0
      -
         depth: 5
         value: 0.
         norm_class_idx: 0
         splits:
            - { var:1, quality:2.5970139160156250e+03,
                le:1.0685000610351562e+02 }
      -
         depth: 6
         value: 0.
         norm_class_idx: 0
         splits:
            - { var:1, quality:3.3360961914062500e+02,
                le:1.0205000305175781e+02 }
      -
         depth: 7
         value: 0.
         norm_class_idx: 0
      -
         depth: 7
         value: 0.
         norm_class_idx: 0
      -
         depth: 6
         value: 0.
         norm_class_idx: 0
         splits:
            - { var:2, quality:2.2722387695312500e+03,
                le:3.6500000000000000e+01 }
      -
         depth: 7
         value: 0.
         norm_class_idx: 0
      -
         depth: 7
         value: 0.
         norm_class_idx: 0
      -
         depth: 1
         value: 1.
         norm_class_idx: 1
         splits:
            - { var:2, quality:1.0831206250000000e+06,
                le:8.3350006103515625e+01 }
      -
         depth: 2
         value: 1.
         norm_class_idx: 1
         splits:
            - { var:0, quality:1.0616145000000000e+06,
                le:1.2835000610351562e+02 }
      -
         depth: 3
         value: 1.
         norm_class_idx: 1
         splits:
            - { var:2, quality:6.3139140625000000e+04,
                le:4.2349998474121094e+01 }
      -
         depth: 4
         value: 1.
         norm_class_idx: 1
         splits:
            - { var:2, quality:5.4988261718750000e+04,
                le:2.2349998474121094e+01 }
      -
         depth: 5
         value: 0.
         norm_class_idx: 0
         splits:
            - { var:2, quality:2.1646555175781250e+03,
                le:2.1500000000000000e+01 }
      -
         depth: 6
         value: 0.
         norm_class_idx: 0
         splits:
            - { var:2, quality:2.0191478271484375e+03,
                le:2.1150001525878906e+01 }
      -
         depth: 7
         value: 0.
         norm_class_idx: 0
      -
         depth: 7
         value: 0.
         norm_class_idx: 0
      -
         depth: 6
         value: 0.
         norm_class_idx: 0
         splits:
            - { var:1, quality:1.9610530090332031e+02, le:98. }
      -
         depth: 7
         value: 1.
         norm_class_idx: 1
      -
         depth: 7
         value: 0.
         norm_class_idx: 0
      -
         depth: 5
         value: 1.
         norm_class_idx: 1
         splits:
            - { var:2, quality:5.3864375000000000e+04,
                le:3.8750000000000000e+01 }
      -
         depth: 6
         value: 1.
         norm_class_idx: 1
         splits:
            - { var:1, quality:4.9539816406250000e+04,
                le:8.9250000000000000e+01 }
      -
         depth: 7
         value: 0.
         norm_class_idx: 0
      -
         depth: 7
         value: 1.
         norm_class_idx: 1
      -
         depth: 6
         value: 1.
         norm_class_idx: 1
         splits:
            - { var:0, quality:6.6867216796875000e+03,
                le:1.0135000610351562e+02 }
      -
         depth: 7
         value: 0.
         norm_class_idx: 0
      -
         depth: 7
         value: 1.
         norm_class_idx: 1
      -
         depth: 4
         value: 0.
         norm_class_idx: 0
         splits:
            - { var:0, quality:1.2312748046875000e+04,
                le:1.1650000000000000e+02 }
      -
         depth: 5
         value: 0.
         norm_class_idx: 0
         splits:
            - { var:2, quality:8.9723652343750000e+03,
                le:4.4849998474121094e+01 }
      -
         depth: 6
         value: 0.
         norm_class_idx: 0
         splits:
            - { var:0, quality:1.9955510253906250e+03,
                le:1.0825000000000000e+02 }
      -
         depth: 7
         value: 0.
         norm_class_idx: 0
      -
         depth: 7
         value: 1.
         norm_class_idx: 1
      -
         depth: 6
         value: 0.
         norm_class_idx: 0
         splits:
            - { var:2, quality:7.1858061523437500e+03,
                le:4.6349998474121094e+01 }
      -
         depth: 7
         value: 0.
         norm_class_idx: 0
      -
         depth: 7
         value: 0.
         norm_class_idx: 0
      -
         depth: 5
         value: 0.
         norm_class_idx: 0
         splits:
            - { var:2, quality:5.1408164062500000e+03,
                le:4.9500000000000000e+01 }
      -
         depth: 6
         value: 1.
         norm_class_idx: 1
         splits:
            - { var:1, quality:2.1583183593750000e+03,
                le:1.5135000610351562e+02 }
      -
         depth: 7
         value: 1.
         norm_class_idx: 1
      -
         depth: 7
         value: 0.
         norm_class_idx: 0
      -
         depth: 6
         value: 0.
         norm_class_idx: 0
         splits:
            - { var:2, quality:3.1563825683593750e+03,
                le:5.1049999237060547e+01 }
      -
         depth: 7
         value: 0.
         norm_class_idx: 0
      -
         depth: 7
         value: 0.
         norm_class_idx: 0
      -
         depth: 3
         value: 1.
         norm_class_idx: 1
         splits:
            - { var:2, quality:1.0119240625000000e+06,
                le:7.1750000000000000e+01 }
      -
         depth: 4
         value: 1.
         norm_class_idx: 1
         splits:
            - { var:0, quality:9.7280431250000000e+05,
                le:1.5085000610351562e+02 }
      -
         depth: 5
         value: 1.
         norm_class_idx: 1
         splits:
            - { var:2, quality:9.4991492187500000e+04,
                le:5.5849998474121094e+01 }
      -
         depth: 6
         value: 1.
         norm_class_idx: 1
         splits:
            - { var:2, quality:9.0986718750000000e+04,
                le:2.9250000000000000e+01 }
      -
         depth: 7
         value: 0.
         norm_class_idx: 0
      -
         depth: 7
         value: 1.
         norm_class_idx: 1
      -
         depth: 6
         value: 0.
         norm_class_idx: 0
         splits:
            - { var:2, quality:4.5029819335937500e+03,
                le:5.9049999237060547e+01 }
      -
         depth: 7
         value: 0.
         norm_class_idx: 0
      -
         depth: 7
         value: 0.
         norm_class_idx: 0
      -
         depth: 5
         value: 1.
         norm_class_idx: 1
         splits:
            - { var:2, quality:8.8575275000000000e+05,
                le:3.4250000000000000e+01 }
      -
         depth: 6
         value: 0.
         norm_class_idx: 0
         splits:
            - { var:2, quality:1.2067637634277344e+02,
                le:3.3650001525878906e+01 }
      -
         depth: 7
         value: 0.
         norm_class_idx: 0
      -
         depth: 7
         value: 0.
         norm_class_idx: 0
      -
         depth: 6
         value: 1.
         norm_class_idx: 1
         splits:
            - { var:1, quality:885751., le:1.4810000610351562e+02 }
      -
         depth: 7
         value: 0.
         norm_class_idx: 0
      -
         depth: 7
         value: 1.
         norm_class_idx: 1
      -
         depth: 4
         value: 1.
         norm_class_idx: 1
         splits:
            - { var:0, quality:5.0171437500000000e+04,
                le:1.9225000000000000e+02 }
      -
         depth: 5
         value: 0.
         norm_class_idx: 0
         splits:
            - { var:0, quality:6.0467519531250000e+03,
                le:1.8605000305175781e+02 }
      -
         depth: 6
         value: 0.
         norm_class_idx: 0
         splits:
            - { var:0, quality:5.6658198242187500e+03,
                le:1.8275000000000000e+02 }
      -
         depth: 7
         value: 0.
         norm_class_idx: 0
      -
         depth: 7
         value: 0.
         norm_class_idx: 0
      -
         depth: 6
         value: 0.
         norm_class_idx: 0
         splits:
            - { var:2, quality:5.1724176025390625e+02,
                le:7.4750000000000000e+01 }
      -
         depth: 7
         value: 1.
         norm_class_idx: 1
      -
         depth: 7
         value: 0.
         norm_class_idx: 0
      -
         depth: 5
         value: 1.
         norm_class_idx: 1
         splits:
            - { var:0, quality:4.4359722656250000e+04,
                le:2.0364999389648438e+02 }
      -
         depth: 6
         value: 1.
         norm_class_idx: 1
         splits:
            - { var:2, quality:8.5010980224609375e+02,
                le:7.9350006103515625e+01 }
      -
         depth: 7
         value: 1.
         norm_class_idx: 1
      -
         depth: 7
         value: 0.
         norm_class_idx: 0
      -
         depth: 6
         value: 1.
         norm_class_idx: 1
         splits:
            - { var:1, quality:4.3882265625000000e+04,
                le:2.3510000610351562e+02 }
      -
         depth: 7
         value: 0.
         norm_class_idx: 0
      -
         depth: 7
         value: 1.
         norm_class_idx: 1
      -
         depth: 2
         value: 0.
         norm_class_idx: 0
         splits:
            - { var:0, quality:4.9974300781250000e+04,
                le:2.5125000000000000e+02 }
      -
         depth: 3
         value: 0.
         norm_class_idx: 0
         splits:
            - { var:2, quality:2.6527109375000000e+04,
                le:9.0649993896484375e+01 }
      -
         depth: 4
         value: 0.
         norm_class_idx: 0
         splits:
            - { var:0, quality:7.6698828125000000e+03,
                le:2.2125000000000000e+02 }
      -
         depth: 5
         value: 0.
         norm_class_idx: 0
         splits:
            - { var:0, quality:5.2218247070312500e+03,
                le:2.0935000610351562e+02 }
      -
         depth: 6
         value: 0.
         norm_class_idx: 0
         splits:
            - { var:0, quality:4.5026137695312500e+03,
                le:2.0605000305175781e+02 }
      -
         depth: 7
         value: 0.
         norm_class_idx: 0
      -
         depth: 7
         value: 0.
         norm_class_idx: 0
      -
         depth: 6
         value: 0.
         norm_class_idx: 0
         splits:
            - { var:2, quality:8.5185058593750000e+02,
                le:8.5750000000000000e+01 }
      -
         depth: 7
         value: 1.
         norm_class_idx: 1
      -
         depth: 7
         value: 0.
         norm_class_idx: 0
      -
         depth: 5
         value: 1.
         norm_class_idx: 1
         splits:
            - { var:1, quality:2.5911752929687500e+03,
                le:2.4669999694824219e+02 }
      -
         depth: 6
         value: 0.
         norm_class_idx: 0
      -
         depth: 6
         value: 1.
         norm_class_idx: 1
         splits:
            - { var:0, quality:2.5397287597656250e+03,
                le:2.2294999694824219e+02 }
      -
         depth: 7
         value: 1.
         norm_class_idx: 1
      -
         depth: 7
         value: 1.
         norm_class_idx: 1
      -
         depth: 4
         value: 0.
         norm_class_idx: 0
         splits:
            - { var:0, quality:2.2058212890625000e+04,
                le:2.4425000000000000e+02 }
      -
         depth: 5
         value: 0.
         norm_class_idx: 0
         splits:
            - { var:0, quality:1.8645509765625000e+04,
                le:2.3364999389648438e+02 }
      -
         depth: 6
         value: 0.
         norm_class_idx: 0
         splits:
            - { var:0, quality:1.3370687500000000e+04,
                le:2.2005000305175781e+02 }
      -
         depth: 7
         value: 0.
         norm_class_idx: 0
      -
         depth: 7
         value: 0.
         norm_class_idx: 0
      -
         depth: 6
         value: 0.
         norm_class_idx: 0
         splits:
            - { var:2, quality:5.6695566406250000e+03,
                le:9.6500000000000000e+01 }
      -
         depth: 7
         value: 1.
         norm_class_idx: 1
      -
         depth: 7
         value: 0.
         norm_class_idx: 0
      -
         depth: 5
         value: 0.
         norm_class_idx: 0
         splits:
            - { var:2, quality:4.2427690429687500e+03,
                le:1.0125000000000000e+02 }
      -
         depth: 6
         value: 1.
         norm_class_idx: 1
         splits:
            - { var:2, quality:5.1976068115234375e+02,
                le:1.0005000305175781e+02 }
      -
         depth: 7
         value: 1.
         norm_class_idx: 1
      -
         depth: 7
         value: 1.
         norm_class_idx: 1
      -
         depth: 6
         value: 0.
         norm_class_idx: 0
         splits:
            - { var:2, quality:3.7496323242187500e+03,
                le:1.0235000610351562e+02 }
      -
         depth: 7
         value: 0.
         norm_class_idx: 0
      -
         depth: 7
         value: 0.
         norm_class_idx: 0
      -
         depth: 3
         value: 1.
         norm_class_idx: 1
         splits:
            - { var:0, quality:2.5303767578125000e+04,
                le:2.5364999389648438e+02 }
      -
         depth: 4
         value: 1.
         norm_class_idx: 1
         splits:
            - { var:2, quality:4.4330703125000000e+03,
                le:1.0385000610351562e+02 }
      -
         depth: 5
         value: 1.
         norm_class_idx: 1
         splits:
            - { var:2, quality:2.7754865722656250e+03,
                le:1.0250000000000000e+02 }
      -
         depth: 6
         value: 1.
         norm_class_idx: 1
      -
         depth: 6
         value: 1.
         norm_class_idx: 1
         splits:
            - { var:0, quality:3.2500000000000000e+01,
                le:2.5264999389648438e+02 }
      -
         depth: 7
         value: 1.
         norm_class_idx: 1
      -
         depth: 7
         value: 1.
         norm_class_idx: 1
      -
         depth: 5
         value: 0.
         norm_class_idx: 0
         splits:
            - { var:0, quality:1.7186834716796875e+03,
                le:2.5335000610351562e+02 }
      -
         depth: 6
         value: 0.
         norm_class_idx: 0
         splits:
            - { var:2, quality:1.5485100097656250e+03,
                le:1.0775000000000000e+02 }
      -
         depth: 7
         value: 0.
         norm_class_idx: 0
      -
         depth: 7
         value: 0.
         norm_class_idx: 0
      -
         depth: 6
         value: 0.
         norm_class_idx: 0
         splits:
            - { var:2, quality:1.9790467834472656e+02,
                le:1.1935000610351562e+02 }
      -
         depth: 7
         value: 0.
         norm_class_idx: 0
      -
         depth: 7
         value: 1.
         norm_class_idx: 1
      -
         depth: 4
         value: 1.
         norm_class_idx: 1
         splits:
            - { var:2, quality:2.2869779296875000e+04,
                le:1.0725000000000000e+02 }
      -
         depth: 5
         value: 1.
         norm_class_idx: 1
         splits:
            - { var:2, quality:1.2028674804687500e+04,
                le:1.0575000000000000e+02 }
      -
         depth: 6
         value: 1.
         norm_class_idx: 1
      -
         depth: 6
         value: 1.
         norm_class_idx: 1
         splits:
            - { var:0, quality:6.3971661376953125e+02,
                le:2.5394999694824219e+02 }
      -
         depth: 7
         value: 1.
         norm_class_idx: 1
      -
         depth: 7
         value: 1.
         norm_class_idx: 1
      -
         depth: 5
         value: 1.
         norm_class_idx: 1
         splits:
            - { var:2, quality:1.1084044921875000e+04,
                le:1.2025000000000000e+02 }
      -
         depth: 6
         value: 1.
         norm_class_idx: 1
         splits:
            - { var:1, quality:5.0769873046875000e+03,
                le:2.5475000000000000e+02 }
      -
         depth: 7
         value: 1.
         norm_class_idx: 1
      -
         depth: 7
         value: 1.
         norm_class_idx: 1
      -
         depth: 6
         value: 1.
         norm_class_idx: 1
         splits:
            - { var:2, quality:6.1129140625000000e+03,
                le:1.2205000305175781e+02 }
      -
         depth: 7
         value: 1.
         norm_class_idx: 1
      -
         depth: 7
         value: 1.
         norm_class_idx: 1
