opencv_ml_dtree:
   format: 3
   is_classifier: 1
   var_all: 4
   var_count: 3
   ord_var_count: 3
   cat_var_count: 1
   training_params:
      use_surrogates: 0
      max_categories: 2
      regression_accuracy: 9.9999997764825821e-03
      max_depth: 10
      min_sample_count: 10
      cross_validation_folds: 0
      priors: !!opencv-matrix
         rows: 1
         cols: 2
         dt: f
         data: [ 1., 10. ]
   global_var_idx: 1
   var_idx: [ 0, 1, 2 ]
   var_type: [ 0, 0, 0, 1 ]
   cat_ofs: [ 0, 0, 0, 0, 0, 0 ]
   class_labels: [ 0, 1 ]
   missing_subst: [ 0., 0., 0., 0. ]
   nodes:
      -
         depth: 0
         value: 1.
         norm_class_idx: 1
         splits:
            - { var:0, quality:8392894., le:1.2949999809265137e+01 }
      -
         depth: 1
         value: 0.
         norm_class_idx: 0
         splits:
            - { var:0, quality:1.1779533593750000e+05,
                le:1.1250000000000000e+01 }
      -
         depth: 2
         value: 0.
         norm_class_idx: 0
         splits:
            - { var:0, quality:1.0952239062500000e+05,
                le:1.0850000381469727e+01 }
      -
         depth: 3
         value: 0.
         norm_class_idx: 0
         splits:
            - { var:0, quality:1.0607045312500000e+05,
                le:8.7500000000000000e+00 }
      -
         depth: 4
         value: 0.
         norm_class_idx: 0
      -
         depth: 4
         value: 0.
         norm_class_idx: 0
         splits:
            - { var:2, quality:2.1319095703125000e+04,
                le:3.9500000476837158e+00 }
      -
         depth: 5
         value: 0.
         norm_class_idx: 0
         splits:
            - { var:2, quality:2.2617922363281250e+03,
                le:3.2500000000000000e+00 }
      -
         depth: 6
         value: 0.
         norm_class_idx: 0
         splits:
            - { var:0, quality:1.5437543945312500e+03,
                le:8.8500003814697266e+00 }
      -
         depth: 7
         value: 0.
         norm_class_idx: 0
         splits:
            - { var:2, quality:9.9555557250976562e+01,
                le:2.9500000476837158e+00 }
      -
         depth: 8
         value: 0.
         norm_class_idx: 0
      -
         depth: 8
         value: 0.
         norm_class_idx: 0
         splits:
            - { var:1, quality:3.2666667938232422e+01,
                le:1.0750000000000000e+01 }
      -
         depth: 9
         value: 1.
         norm_class_idx: 1
      -
         depth: 9
         value: 0.
         norm_class_idx: 0
      -
         depth: 7
         value: 0.
         norm_class_idx: 0
      -
         depth: 6
         value: 0.
         norm_class_idx: 0
         splits:
            - { var:1, quality:7.2552911376953125e+02,
                le:1.1350000381469727e+01 }
      -
         depth: 7
         value: 0.
         norm_class_idx: 0
         splits:
            - { var:1, quality:1.9384614944458008e+01,
                le:1.1250000000000000e+01 }
      -
         depth: 8
         value: 0.
         norm_class_idx: 0
      -
         depth: 8
         value: 1.
         norm_class_idx: 1
      -
         depth: 7
         value: 0.
         norm_class_idx: 0
         splits:
            - { var:0, quality:7.1698004150390625e+02,
                le:9.5500001907348633e+00 }
      -
         depth: 8
         value: 0.
         norm_class_idx: 0
      -
         depth: 8
         value: 0.
         norm_class_idx: 0
         splits:
            - { var:1, quality:4.1677148437500000e+02,
                le:1.1949999809265137e+01 }
      -
         depth: 9
         value: 0.
         norm_class_idx: 0
         splits:
            - { var:0, quality:1.7384614944458008e+01,
                le:9.6499996185302734e+00 }
      -
         depth: 10
         value: 1.
         norm_class_idx: 1
      -
         depth: 10
         value: 0.
         norm_class_idx: 0
      -
         depth: 9
         value: 0.
         norm_class_idx: 0
         splits:
            - { var:0, quality:4.0838113403320312e+02,
                le:1.0550000190734863e+01 }
      -
         depth: 10
         value: 0.
         norm_class_idx: 0
      -
         depth: 10
         value: 0.
         norm_class_idx: 0
      -
         depth: 5
         value: 0.
         norm_class_idx: 0
      -
         depth: 3
         value: 0.
         norm_class_idx: 0
         splits:
            - { var:1, quality:3.7711694335937500e+03,
                le:1.5850000381469727e+01 }
      -
         depth: 4
         value: 0.
         norm_class_idx: 0
         splits:
            - { var:2, quality:6.7888446044921875e+02,
                le:4.1499996185302734e+00 }
      -
         depth: 5
         value: 0.
         norm_class_idx: 0
         splits:
            - { var:1, quality:3.7939523315429688e+02,
                le:1.5449999809265137e+01 }
      -
         depth: 6
         value: 0.
         norm_class_idx: 0
         splits:
            - { var:2, quality:3.5792156982421875e+02,
                le:3.8499999046325684e+00 }
      -
         depth: 7
         value: 0.
         norm_class_idx: 0
      -
         depth: 7
         value: 0.
         norm_class_idx: 0
         splits:
            - { var:1, quality:4.1526317596435547e+01,
                le:1.4050000190734863e+01 }
      -
         depth: 8
         value: 1.
         norm_class_idx: 1
      -
         depth: 8
         value: 0.
         norm_class_idx: 0
      -
         depth: 6
         value: 1.
         norm_class_idx: 1
         splits:
            - { var:2, quality:3.1648649215698242e+01,
                le:3.5000000000000000e+00 }
      -
         depth: 7
         value: 0.
         norm_class_idx: 0
      -
         depth: 7
         value: 1.
         norm_class_idx: 1
      -
         depth: 5
         value: 1.
         norm_class_idx: 1
         splits:
            - { var:1, quality:3.5573934936523438e+02,
                le:1.5350000381469727e+01 }
      -
         depth: 6
         value: 1.
         norm_class_idx: 1
         splits:
            - { var:1, quality:3.4284146118164062e+02,
                le:1.4350000381469727e+01 }
      -
         depth: 7
         value: 0.
         norm_class_idx: 0
         splits:
            - { var:1, quality:3.0500000000000000e+01,
                le:1.3399999618530273e+01 }
      -
         depth: 8
         value: 1.
         norm_class_idx: 1
      -
         depth: 8
         value: 0.
         norm_class_idx: 0
      -
         depth: 7
         value: 1.
         norm_class_idx: 1
         splits:
            - { var:2, quality:3.2600527954101562e+02,
                le:4.5500001907348633e+00 }
      -
         depth: 8
         value: 1.
         norm_class_idx: 1
         splits:
            - { var:2, quality:9.7601623535156250e+01,
                le:4.4499998092651367e+00 }
      -
         depth: 9
         value: 1.
         norm_class_idx: 1
         splits:
            - { var:0, quality:8.8079368591308594e+01,
                le:1.1149999618530273e+01 }
      -
         depth: 10
         value: 1.
         norm_class_idx: 1
      -
         depth: 10
         value: 1.
         norm_class_idx: 1
      -
         depth: 9
         value: 0.
         norm_class_idx: 0
      -
         depth: 8
         value: 1.
         norm_class_idx: 1
         splits:
            - { var:2, quality:2.4808663940429688e+02,
                le:5.0999999046325684e+00 }
      -
         depth: 9
         value: 1.
         norm_class_idx: 1
         splits:
            - { var:1, quality:2.4863636779785156e+02,
                le:1.4649999618530273e+01 }
      -
         depth: 10
         value: 0.
         norm_class_idx: 0
      -
         depth: 10
         value: 1.
         norm_class_idx: 1
      -
         depth: 9
         value: 0.
         norm_class_idx: 0
      -
         depth: 6
         value: 0.
         norm_class_idx: 0
         splits:
            - { var:0, quality:6.1368419647216797e+01,
                le:1.1149999618530273e+01 }
      -
         depth: 7
         value: 0.
         norm_class_idx: 0
      -
         depth: 7
         value: 1.
         norm_class_idx: 1
         splits:
            - { var:2, quality:3.0941177368164062e+01,
                le:4.9000000953674316e+00 }
      -
         depth: 8
         value: 1.
         norm_class_idx: 1
      -
         depth: 8
         value: 0.
         norm_class_idx: 0
      -
         depth: 4
         value: 0.
         norm_class_idx: 0
      -
         depth: 2
         value: 0.
         norm_class_idx: 0
         splits:
            - { var:1, quality:1.1124464843750000e+04,
                le:1.7549999237060547e+01 }
      -
         depth: 3
         value: 1.
         norm_class_idx: 1
         splits:
            - { var:2, quality:4.3283432617187500e+03,
                le:4.3500003814697266e+00 }
      -
         depth: 4
         value: 0.
         norm_class_idx: 0
         splits:
            - { var:2, quality:1.2670479736328125e+03,
                le:3.8499999046325684e+00 }
      -
         depth: 5
         value: 0.
         norm_class_idx: 0
         splits:
            - { var:1, quality:9.0150476074218750e+02,
                le:1.7150001525878906e+01 }
      -
         depth: 6
         value: 0.
         norm_class_idx: 0
         splits:
            - { var:0, quality:8.9570269775390625e+02,
                le:1.1350000381469727e+01 }
      -
         depth: 7
         value: 0.
         norm_class_idx: 0
         splits:
            - { var:1, quality:74., le:16. }
      -
         depth: 8
         value: 0.
         norm_class_idx: 0
      -
         depth: 8
         value: 1.
         norm_class_idx: 1
      -
         depth: 7
         value: 0.
         norm_class_idx: 0
      -
         depth: 6
         value: 1.
         norm_class_idx: 1
      -
         depth: 5
         value: 0.
         norm_class_idx: 0
         splits:
            - { var:1, quality:3.9720422363281250e+02,
                le:1.5250000000000000e+01 }
      -
         depth: 6
         value: 0.
         norm_class_idx: 0
         splits:
            - { var:2, quality:2.0514894104003906e+02,
                le:4.1499996185302734e+00 }
      -
         depth: 7
         value: 0.
         norm_class_idx: 0
      -
         depth: 7
         value: 0.
         norm_class_idx: 0
         splits:
            - { var:0, quality:6.6727272033691406e+01,
                le:1.1750000000000000e+01 }
      -
         depth: 8
         value: 1.
         norm_class_idx: 1
         splits:
            - { var:0, quality:3.7424243927001953e+01,
                le:1.1649999618530273e+01 }
      -
         depth: 9
         value: 0.
         norm_class_idx: 0
         splits:
            - { var:1, quality:2.3526315689086914e+01,
                le:1.4649999618530273e+01 }
      -
         depth: 10
         value: 1.
         norm_class_idx: 1
      -
         depth: 10
         value: 0.
         norm_class_idx: 0
      -
         depth: 9
         value: 1.
         norm_class_idx: 1
      -
         depth: 8
         value: 0.
         norm_class_idx: 0
      -
         depth: 6
         value: 0.
         norm_class_idx: 0
         splits:
            - { var:1, quality:2.3022909545898438e+02,
                le:1.5350000381469727e+01 }
      -
         depth: 7
         value: 1.
         norm_class_idx: 1
         splits:
            - { var:0, quality:5.3285713195800781e+01,
                le:1.1850000381469727e+01 }
      -
         depth: 8
         value: 1.
         norm_class_idx: 1
         splits:
            - { var:0, quality:46., le:1.1649999618530273e+01 }
      -
         depth: 9
         value: 1.
         norm_class_idx: 1
      -
         depth: 9
         value: 1.
         norm_class_idx: 1
      -
         depth: 8
         value: 0.
         norm_class_idx: 0
      -
         depth: 7
         value: 0.
         norm_class_idx: 0
         splits:
            - { var:0, quality:1.9560989379882812e+02,
                le:1.2550000190734863e+01 }
      -
         depth: 8
         value: 0.
         norm_class_idx: 0
         splits:
            - { var:1, quality:1.4597727966308594e+02,
                le:1.6349998474121094e+01 }
      -
         depth: 9
         value: 0.
         norm_class_idx: 0
         splits:
            - { var:0, quality:1.0905263519287109e+02,
                le:1.1649999618530273e+01 }
      -
         depth: 10
         value: 1.
         norm_class_idx: 1
      -
         depth: 10
         value: 0.
         norm_class_idx: 0
      -
         depth: 9
         value: 1.
         norm_class_idx: 1
         splits:
            - { var:0, quality:6.7704315185546875e+01,
                le:1.2449999809265137e+01 }
      -
         depth: 10
         value: 0.
         norm_class_idx: 0
      -
         depth: 10
         value: 1.
         norm_class_idx: 1
      -
         depth: 8
         value: 0.
         norm_class_idx: 0
         splits:
            - { var:2, quality:8.1764709472656250e+01,
                le:4.2500000000000000e+00 }
      -
         depth: 9
         value: 0.
         norm_class_idx: 0
      -
         depth: 9
         value: 1.
         norm_class_idx: 1
      -
         depth: 4
         value: 1.
         norm_class_idx: 1
         splits:
            - { var:1, quality:3.3543371582031250e+03,
                le:1.6349998474121094e+01 }
      -
         depth: 5
         value: 1.
         norm_class_idx: 1
         splits:
            - { var:2, quality:3.0416147460937500e+03,
                le:4.6499996185302734e+00 }
      -
         depth: 6
         value: 1.
         norm_class_idx: 1
         splits:
            - { var:0, quality:3.3884381103515625e+02,
                le:1.2250000000000000e+01 }
      -
         depth: 7
         value: 1.
         norm_class_idx: 1
         splits:
            - { var:0, quality:2.8143566894531250e+02,
                le:1.1850000381469727e+01 }
      -
         depth: 8
         value: 1.
         norm_class_idx: 1
         splits:
            - { var:1, quality:2.0059346008300781e+02,
                le:1.4550000190734863e+01 }
      -
         depth: 9
         value: 1.
         norm_class_idx: 1
      -
         depth: 9
         value: 1.
         norm_class_idx: 1
         splits:
            - { var:1, quality:1.5055502319335938e+02,
                le:1.4750000000000000e+01 }
      -
         depth: 10
         value: 0.
         norm_class_idx: 0
      -
         depth: 10
         value: 1.
         norm_class_idx: 1
      -
         depth: 8
         value: 1.
         norm_class_idx: 1
         splits:
            - { var:1, quality:9.8038757324218750e+01,
                le:1.5100000381469727e+01 }
      -
         depth: 9
         value: 0.
         norm_class_idx: 0
      -
         depth: 9
         value: 1.
         norm_class_idx: 1
         splits:
            - { var:1, quality:9.3966743469238281e+01,
                le:1.5750000000000000e+01 }
      -
         depth: 10
         value: 1.
         norm_class_idx: 1
      -
         depth: 10
         value: 0.
         norm_class_idx: 0
      -
         depth: 7
         value: 0.
         norm_class_idx: 0
         splits:
            - { var:1, quality:7.6350143432617188e+01,
                le:1.5850000381469727e+01 }
      -
         depth: 8
         value: 0.
         norm_class_idx: 0
         splits:
            - { var:0, quality:4.2111110687255859e+01,
                le:1.2350000381469727e+01 }
      -
         depth: 9
         value: 1.
         norm_class_idx: 1
      -
         depth: 9
         value: 0.
         norm_class_idx: 0
      -
         depth: 8
         value: 1.
         norm_class_idx: 1
         splits:
            - { var:0, quality:5.0645160675048828e+01,
                le:1.2550000190734863e+01 }
      -
         depth: 9
         value: 0.
         norm_class_idx: 0
      -
         depth: 9
         value: 1.
         norm_class_idx: 1
         splits:
            - { var:2, quality:5.1285713195800781e+01,
                le:4.4499998092651367e+00 }
      -
         depth: 10
         value: 0.
         norm_class_idx: 0
      -
         depth: 10
         value: 1.
         norm_class_idx: 1
      -
         depth: 6
         value: 1.
         norm_class_idx: 1
         splits:
            - { var:2, quality:2.7410622558593750e+03,
                le:5.7500000000000000e+00 }
      -
         depth: 7
         value: 1.
         norm_class_idx: 1
         splits:
            - { var:1, quality:2.7415571289062500e+03,
                le:1.6049999237060547e+01 }
      -
         depth: 8
         value: 1.
         norm_class_idx: 1
         splits:
            - { var:1, quality:2.4517568359375000e+03,
                le:1.4250000000000000e+01 }
      -
         depth: 9
         value: 0.
         norm_class_idx: 0
      -
         depth: 9
         value: 1.
         norm_class_idx: 1
         splits:
            - { var:2, quality:2.4512604980468750e+03,
                le:5.6499996185302734e+00 }
      -
         depth: 10
         value: 1.
         norm_class_idx: 1
      -
         depth: 10
         value: 0.
         norm_class_idx: 0
      -
         depth: 8
         value: 1.
         norm_class_idx: 1
         splits:
            - { var:0, quality:3.2166018676757812e+02,
                le:1.1449999809265137e+01 }
      -
         depth: 9
         value: 0.
         norm_class_idx: 0
      -
         depth: 9
         value: 1.
         norm_class_idx: 1
         splits:
            - { var:0, quality:3.1081643676757812e+02,
                le:1.2649999618530273e+01 }
      -
         depth: 10
         value: 1.
         norm_class_idx: 1
      -
         depth: 10
         value: 1.
         norm_class_idx: 1
      -
         depth: 7
         value: 0.
         norm_class_idx: 0
      -
         depth: 5
         value: 0.
         norm_class_idx: 0
         splits:
            - { var:0, quality:3.9026644897460938e+02,
                le:1.2449999809265137e+01 }
      -
         depth: 6
         value: 0.
         norm_class_idx: 0
         splits:
            - { var:2, quality:2.4088888549804688e+02,
                le:5.3500003814697266e+00 }
      -
         depth: 7
         value: 0.
         norm_class_idx: 0
         splits:
            - { var:1, quality:1.2817460632324219e+02,
                le:1.6950000762939453e+01 }
      -
         depth: 8
         value: 1.
         norm_class_idx: 1
         splits:
            - { var:1, quality:90., le:1.6450000762939453e+01 }
      -
         depth: 9
         value: 0.
         norm_class_idx: 0
      -
         depth: 9
         value: 1.
         norm_class_idx: 1
         splits:
            - { var:0, quality:8.6227180480957031e+01,
                le:1.1850000381469727e+01 }
      -
         depth: 10
         value: 0.
         norm_class_idx: 0
      -
         depth: 10
         value: 1.
         norm_class_idx: 1
      -
         depth: 8
         value: 0.
         norm_class_idx: 0
         splits:
            - { var:2, quality:5.9666667938232422e+01,
                le:4.5500001907348633e+00 }
      -
         depth: 9
         value: 1.
         norm_class_idx: 1
      -
         depth: 9
         value: 0.
         norm_class_idx: 0
      -
         depth: 7
         value: 0.
         norm_class_idx: 0
      -
         depth: 6
         value: 1.
         norm_class_idx: 1
         splits:
            - { var:2, quality:2.0018045043945312e+02,
                le:6.0500001907348633e+00 }
      -
         depth: 7
         value: 1.
         norm_class_idx: 1
         splits:
            - { var:2, quality:1.6792683410644531e+02,
                le:5.1499996185302734e+00 }
      -
         depth: 8
         value: 1.
         norm_class_idx: 1
         splits:
            - { var:1, quality:1.4167901611328125e+02,
                le:1.7250000000000000e+01 }
      -
         depth: 9
         value: 0.
         norm_class_idx: 0
         splits:
            - { var:2, quality:9.4571426391601562e+01,
                le:5.0500001907348633e+00 }
      -
         depth: 10
         value: 0.
         norm_class_idx: 0
      -
         depth: 10
         value: 1.
         norm_class_idx: 1
      -
         depth: 9
         value: 1.
         norm_class_idx: 1
         splits:
            - { var:2, quality:6.3227394104003906e+01,
                le:4.8500003814697266e+00 }
      -
         depth: 10
         value: 1.
         norm_class_idx: 1
      -
         depth: 10
         value: 1.
         norm_class_idx: 1
      -
         depth: 8
         value: 0.
         norm_class_idx: 0
      -
         depth: 7
         value: 1.
         norm_class_idx: 1
      -
         depth: 3
         value: 0.
         norm_class_idx: 0
         splits:
            - { var:1, quality:7.9444047851562500e+03,
                le:1.8049999237060547e+01 }
      -
         depth: 4
         value: 0.
         norm_class_idx: 0
         splits:
            - { var:0, quality:1.5585714721679688e+02,
                le:1.2850000381469727e+01 }
      -
         depth: 5
         value: 0.
         norm_class_idx: 0
      -
         depth: 5
         value: 1.
         norm_class_idx: 1
         splits:
            - { var:2, quality:3.4941177368164062e+01,
                le:5.4499998092651367e+00 }
      -
         depth: 6
         value: 1.
         norm_class_idx: 1
      -
         depth: 6
         value: 0.
         norm_class_idx: 0
      -
         depth: 4
         value: 0.
         norm_class_idx: 0
      -
         depth: 1
         value: 1.
         norm_class_idx: 1
         splits:
            - { var:1, quality:8.3616045000000000e+06,
                le:5.8750000000000000e+01 }
      -
         depth: 2
         value: 1.
         norm_class_idx: 1
         splits:
            - { var:2, quality:6.1320906250000000e+05,
                le:5.2500000000000000e+00 }
      -
         depth: 3
         value: 0.
         norm_class_idx: 0
         splits:
            - { var:0, quality:2.7834232421875000e+04,
                le:1.5050000190734863e+01 }
      -
         depth: 4
         value: 1.
         norm_class_idx: 1
         splits:
            - { var:2, quality:2.6082385253906250e+03,
                le:4.3500003814697266e+00 }
      -
         depth: 5
         value: 0.
         norm_class_idx: 0
         splits:
            - { var:1, quality:9.1250817871093750e+02,
                le:1.8849998474121094e+01 }
      -
         depth: 6
         value: 0.
         norm_class_idx: 0
      -
         depth: 6
         value: 0.
         norm_class_idx: 0
         splits:
            - { var:0, quality:5.3941177368164062e+01,
                le:1.3949999809265137e+01 }
      -
         depth: 7
         value: 1.
         norm_class_idx: 1
      -
         depth: 7
         value: 0.
         norm_class_idx: 0
      -
         depth: 5
         value: 1.
         norm_class_idx: 1
         splits:
            - { var:1, quality:1.8410052490234375e+03,
                le:2.1549999237060547e+01 }
      -
         depth: 6
         value: 1.
         norm_class_idx: 1
         splits:
            - { var:0, quality:1.8023576660156250e+03,
                le:1.3850000381469727e+01 }
      -
         depth: 7
         value: 1.
         norm_class_idx: 1
         splits:
            - { var:1, quality:1.2585628662109375e+03,
                le:1.8950000762939453e+01 }
      -
         depth: 8
         value: 1.
         norm_class_idx: 1
         splits:
            - { var:2, quality:1.2620058593750000e+03,
                le:4.4499998092651367e+00 }
      -
         depth: 9
         value: 1.
         norm_class_idx: 1
         splits:
            - { var:0, quality:4.8237289428710938e+01,
                le:1.3250000000000000e+01 }
      -
         depth: 10
         value: 0.
         norm_class_idx: 0
      -
         depth: 10
         value: 1.
         norm_class_idx: 1
      -
         depth: 9
         value: 1.
         norm_class_idx: 1
         splits:
            - { var:2, quality:1.2279403076171875e+03,
                le:4.6499996185302734e+00 }
      -
         depth: 10
         value: 1.
         norm_class_idx: 1
      -
         depth: 10
         value: 1.
         norm_class_idx: 1
      -
         depth: 8
         value: 0.
         norm_class_idx: 0
      -
         depth: 7
         value: 1.
         norm_class_idx: 1
         splits:
            - { var:1, quality:6.4834191894531250e+02,
                le:1.7349998474121094e+01 }
      -
         depth: 8
         value: 0.
         norm_class_idx: 0
         splits:
            - { var:0, quality:1.3666667175292969e+02,
                le:1.3949999809265137e+01 }
      -
         depth: 9
         value: 0.
         norm_class_idx: 0
         splits:
            - { var:1, quality:2.4285715103149414e+01,
                le:1.6950000762939453e+01 }
      -
         depth: 10
         value: 0.
         norm_class_idx: 0
      -
         depth: 10
         value: 1.
         norm_class_idx: 1
      -
         depth: 9
         value: 0.
         norm_class_idx: 0
      -
         depth: 8
         value: 1.
         norm_class_idx: 1
         splits:
            - { var:2, quality:5.2841082763671875e+02,
                le:5.0500001907348633e+00 }
      -
         depth: 9
         value: 1.
         norm_class_idx: 1
         splits:
            - { var:1, quality:2.8203747558593750e+02,
                le:1.8549999237060547e+01 }
      -
         depth: 10
         value: 1.
         norm_class_idx: 1
      -
         depth: 10
         value: 0.
         norm_class_idx: 0
      -
         depth: 9
         value: 1.
         norm_class_idx: 1
         splits:
            - { var:0, quality:2.6255120849609375e+02,
                le:1.4050000190734863e+01 }
      -
         depth: 10
         value: 1.
         norm_class_idx: 1
      -
         depth: 10
         value: 1.
         norm_class_idx: 1
      -
         depth: 6
         value: 0.
         norm_class_idx: 0
      -
         depth: 4
         value: 0.
         norm_class_idx: 0
         splits:
            - { var:2, quality:2.5961355468750000e+04,
                le:4.8500003814697266e+00 }
      -
         depth: 5
         value: 0.
         norm_class_idx: 0
         splits:
            - { var:0, quality:2.3446841796875000e+04,
                le:1.5350000381469727e+01 }
      -
         depth: 6
         value: 0.
         norm_class_idx: 0
         splits:
            - { var:1, quality:7.1636364746093750e+02,
                le:1.8150001525878906e+01 }
      -
         depth: 7
         value: 0.
         norm_class_idx: 0
      -
         depth: 7
         value: 1.
         norm_class_idx: 1
         splits:
            - { var:2, quality:7.5490196228027344e+01,
                le:4.4499998092651367e+00 }
      -
         depth: 8
         value: 0.
         norm_class_idx: 0
      -
         depth: 8
         value: 1.
         norm_class_idx: 1
         splits:
            - { var:1, quality:7.5333335876464844e+01,
                le:2.0549999237060547e+01 }
      -
         depth: 9
         value: 1.
         norm_class_idx: 1
         splits:
            - { var:0, quality:7.0320983886718750e+01,
                le:1.5149999618530273e+01 }
      -
         depth: 10
         value: 1.
         norm_class_idx: 1
      -
         depth: 10
         value: 1.
         norm_class_idx: 1
      -
         depth: 9
         value: 0.
         norm_class_idx: 0
      -
         depth: 6
         value: 0.
         norm_class_idx: 0
      -
         depth: 5
         value: 0.
         norm_class_idx: 0
         splits:
            - { var:0, quality:2.9519528808593750e+03,
                le:1.6849998474121094e+01 }
      -
         depth: 6
         value: 1.
         norm_class_idx: 1
         splits:
            - { var:1, quality:3.5895852661132812e+02,
                le:2.0349998474121094e+01 }
      -
         depth: 7
         value: 1.
         norm_class_idx: 1
         splits:
            - { var:1, quality:3.2983865356445312e+02,
                le:1.7950000762939453e+01 }
      -
         depth: 8
         value: 0.
         norm_class_idx: 0
      -
         depth: 8
         value: 1.
         norm_class_idx: 1
         splits:
            - { var:2, quality:3.1746792602539062e+02,
                le:5.0500001907348633e+00 }
      -
         depth: 9
         value: 1.
         norm_class_idx: 1
         splits:
            - { var:1, quality:1.9136122131347656e+02,
                le:1.8549999237060547e+01 }
      -
         depth: 10
         value: 0.
         norm_class_idx: 0
      -
         depth: 10
         value: 1.
         norm_class_idx: 1
      -
         depth: 9
         value: 1.
         norm_class_idx: 1
         splits:
            - { var:1, quality:1.4500193786621094e+02,
                le:1.9049999237060547e+01 }
      -
         depth: 10
         value: 1.
         norm_class_idx: 1
      -
         depth: 10
         value: 1.
         norm_class_idx: 1
      -
         depth: 7
         value: 0.
         norm_class_idx: 0
         splits:
            - { var:1, quality:5.6615383148193359e+01,
                le:2.1150001525878906e+01 }
      -
         depth: 8
         value: 0.
         norm_class_idx: 0
      -
         depth: 8
         value: 1.
         norm_class_idx: 1
         splits:
            - { var:1, quality:4.0648647308349609e+01,
                le:2.2099998474121094e+01 }
      -
         depth: 9
         value: 1.
         norm_class_idx: 1
      -
         depth: 9
         value: 0.
         norm_class_idx: 0
      -
         depth: 6
         value: 0.
         norm_class_idx: 0
         splits:
            - { var:0, quality:2.6167912597656250e+03,
                le:1.7849998474121094e+01 }
      -
         depth: 7
         value: 0.
         norm_class_idx: 0
         splits:
            - { var:1, quality:6.8021278381347656e+01,
                le:2.1250000000000000e+01 }
      -
         depth: 8
         value: 0.
         norm_class_idx: 0
      -
         depth: 8
         value: 0.
         norm_class_idx: 0
         splits:
            - { var:1, quality:3.0529411315917969e+01,
                le:2.2250000000000000e+01 }
      -
         depth: 9
         value: 1.
         norm_class_idx: 1
         splits:
            - { var:0, quality:2.2571428298950195e+01,
                le:1.7150001525878906e+01 }
      -
         depth: 10
         value: 0.
         norm_class_idx: 0
      -
         depth: 10
         value: 1.
         norm_class_idx: 1
      -
         depth: 9
         value: 0.
         norm_class_idx: 0
      -
         depth: 7
         value: 0.
         norm_class_idx: 0
      -
         depth: 3
         value: 1.
         norm_class_idx: 1
         splits:
            - { var:0, quality:597782., le:3.0849998474121094e+01 }
      -
         depth: 4
         value: 1.
         norm_class_idx: 1
         splits:
            - { var:2, quality:3.0260565625000000e+05,
                le:1.6349998474121094e+01 }
      -
         depth: 5
         value: 1.
         norm_class_idx: 1
         splits:
            - { var:0, quality:2.9827303125000000e+05,
                le:2.1650001525878906e+01 }
      -
         depth: 6
         value: 1.
         norm_class_idx: 1
         splits:
            - { var:1, quality:5.7178195312500000e+04,
                le:2.8950000762939453e+01 }
      -
         depth: 7
         value: 1.
         norm_class_idx: 1
         splits:
            - { var:2, quality:5.2602820312500000e+04,
                le:1.0050000190734863e+01 }
      -
         depth: 8
         value: 1.
         norm_class_idx: 1
         splits:
            - { var:1, quality:5.1969128906250000e+04,
                le:2.1349998474121094e+01 }
      -
         depth: 9
         value: 1.
         norm_class_idx: 1
         splits:
            - { var:2, quality:2.5528542968750000e+04,
                le:7.3500003814697266e+00 }
      -
         depth: 10
         value: 1.
         norm_class_idx: 1
      -
         depth: 10
         value: 0.
         norm_class_idx: 0
      -
         depth: 9
         value: 1.
         norm_class_idx: 1
         splits:
            - { var:0, quality:2.7887300781250000e+04,
                le:1.5550000190734863e+01 }
      -
         depth: 10
         value: 0.
         norm_class_idx: 0
      -
         depth: 10
         value: 1.
         norm_class_idx: 1
      -
         depth: 8
         value: 0.
         norm_class_idx: 0
         splits:
            - { var:0, quality:1.3859830322265625e+03,
                le:1.9750000000000000e+01 }
      -
         depth: 9
         value: 0.
         norm_class_idx: 0
      -
         depth: 9
         value: 1.
         norm_class_idx: 1
         splits:
            - { var:2, quality:1.8125000000000000e+02,
                le:1.1350000381469727e+01 }
      -
         depth: 10
         value: 1.
         norm_class_idx: 1
      -
         depth: 10
         value: 0.
         norm_class_idx: 0
      -
         depth: 7
         value: 0.
         norm_class_idx: 0
         splits:
            - { var:0, quality:6.3090351562500000e+03,
                le:2.0650001525878906e+01 }
      -
         depth: 8
         value: 0.
         norm_class_idx: 0
         splits:
            - { var:0, quality:5.4495039062500000e+03,
                le:2.0549999237060547e+01 }
      -
         depth: 9
         value: 0.
         norm_class_idx: 0
      -
         depth: 9
         value: 0.
         norm_class_idx: 0
         splits:
            - { var:2, quality:1.0880644989013672e+02,
                le:8.3500003814697266e+00 }
      -
         depth: 10
         value: 1.
         norm_class_idx: 1
      -
         depth: 10
         value: 0.
         norm_class_idx: 0
      -
         depth: 8
         value: 0.
         norm_class_idx: 0
         splits:
            - { var:1, quality:1.1736022949218750e+03,
                le:3.0250000000000000e+01 }
      -
         depth: 9
         value: 1.
         norm_class_idx: 1
         splits:
            - { var:1, quality:4.3765142822265625e+02,
                le:2.9549999237060547e+01 }
      -
         depth: 10
         value: 1.
         norm_class_idx: 1
      -
         depth: 10
         value: 1.
         norm_class_idx: 1
      -
         depth: 9
         value: 0.
         norm_class_idx: 0
         splits:
            - { var:0, quality:7.6133947753906250e+02,
                le:2.1549999237060547e+01 }
      -
         depth: 10
         value: 0.
         norm_class_idx: 0
      -
         depth: 10
         value: 0.
         norm_class_idx: 0
      -
         depth: 6
         value: 1.
         norm_class_idx: 1
         splits:
            - { var:2, quality:2.5157354687500000e+05,
                le:6.3500003814697266e+00 }
      -
         depth: 7
         value: 0.
         norm_class_idx: 0
         splits:
            - { var:0, quality:2.1892885742187500e+03,
                le:2.2450000762939453e+01 }
      -
         depth: 8
         value: 1.
         norm_class_idx: 1
         splits:
            - { var:1, quality:1.3577165222167969e+02,
                le:2.5100000381469727e+01 }
      -
         depth: 9
         value: 0.
         norm_class_idx: 0
      -
         depth: 9
         value: 1.
         norm_class_idx: 1
         splits:
            - { var:1, quality:1.2306557464599609e+02,
                le:2.6299999237060547e+01 }
      -
         depth: 10
         value: 1.
         norm_class_idx: 1
      -
         depth: 10
         value: 0.
         norm_class_idx: 0
      -
         depth: 8
         value: 0.
         norm_class_idx: 0
      -
         depth: 7
         value: 1.
         norm_class_idx: 1
         splits:
            - { var:2, quality:2.5040492187500000e+05,
                le:9.5500001907348633e+00 }
      -
         depth: 8
         value: 1.
         norm_class_idx: 1
         splits:
            - { var:1, quality:9.0806242187500000e+04,
                le:3.3650001525878906e+01 }
      -
         depth: 9
         value: 1.
         norm_class_idx: 1
         splits:
            - { var:0, quality:8.9508921875000000e+04,
                le:2.8950000762939453e+01 }
      -
         depth: 10
         value: 1.
         norm_class_idx: 1
      -
         depth: 10
         value: 0.
         norm_class_idx: 0
      -
         depth: 9
         value: 1.
         norm_class_idx: 1
         splits:
            - { var:0, quality:1.7790518798828125e+03,
                le:2.6049999237060547e+01 }
      -
         depth: 10
         value: 0.
         norm_class_idx: 0
      -
         depth: 10
         value: 1.
         norm_class_idx: 1
      -
         depth: 8
         value: 1.
         norm_class_idx: 1
         splits:
            - { var:2, quality:1.6074256250000000e+05,
                le:1.2550000190734863e+01 }
      -
         depth: 9
         value: 1.
         norm_class_idx: 1
         splits:
            - { var:1, quality:6.7471304687500000e+04,
                le:3.5950000762939453e+01 }
      -
         depth: 10
         value: 1.
         norm_class_idx: 1
      -
         depth: 10
         value: 1.
         norm_class_idx: 1
      -
         depth: 9
         value: 1.
         norm_class_idx: 1
         splits:
            - { var:0, quality:9.5198984375000000e+04,
                le:2.4250000000000000e+01 }
      -
         depth: 10
         value: 0.
         norm_class_idx: 0
      -
         depth: 10
         value: 1.
         norm_class_idx: 1
      -
         depth: 5
         value: 0.
         norm_class_idx: 0
         splits:
            - { var:2, quality:6.7341088867187500e+03,
                le:1.6849998474121094e+01 }
      -
         depth: 6
         value: 0.
         norm_class_idx: 0
         splits:
            - { var:1, quality:9.9855163574218750e+02,
                le:4.2250000000000000e+01 }
      -
         depth: 7
         value: 0.
         norm_class_idx: 0
      -
         depth: 7
         value: 1.
         norm_class_idx: 1
         splits:
            - { var:0, quality:3.6576242065429688e+02,
                le:3.0049999237060547e+01 }
      -
         depth: 8
         value: 0.
         norm_class_idx: 0
         splits:
            - { var:1, quality:9.3111114501953125e+01,
                le:4.2450000762939453e+01 }
      -
         depth: 9
         value: 1.
         norm_class_idx: 1
      -
         depth: 9
         value: 0.
         norm_class_idx: 0
      -
         depth: 8
         value: 1.
         norm_class_idx: 1
         splits:
            - { var:1, quality:3.0513732910156250e+02,
                le:4.4450000762939453e+01 }
      -
         depth: 9
         value: 1.
         norm_class_idx: 1
         splits:
            - { var:1, quality:2.9244540405273438e+02,
                le:4.2950000762939453e+01 }
      -
         depth: 10
         value: 1.
         norm_class_idx: 1
      -
         depth: 10
         value: 1.
         norm_class_idx: 1
      -
         depth: 9
         value: 0.
         norm_class_idx: 0
      -
         depth: 6
         value: 0.
         norm_class_idx: 0
         splits:
            - { var:2, quality:5.9637871093750000e+03,
                le:1.7049999237060547e+01 }
      -
         depth: 7
         value: 0.
         norm_class_idx: 0
         splits:
            - { var:1, quality:3.3822222900390625e+02,
                le:4.3349998474121094e+01 }
      -
         depth: 8
         value: 0.
         norm_class_idx: 0
      -
         depth: 8
         value: 0.
         norm_class_idx: 0
         splits:
            - { var:0, quality:5.3142856597900391e+01,
                le:3.0349998474121094e+01 }
      -
         depth: 9
         value: 0.
         norm_class_idx: 0
      -
         depth: 9
         value: 1.
         norm_class_idx: 1
         splits:
            - { var:1, quality:3.2734695434570312e+01,
                le:4.4900001525878906e+01 }
      -
         depth: 10
         value: 1.
         norm_class_idx: 1
      -
         depth: 10
         value: 0.
         norm_class_idx: 0
      -
         depth: 7
         value: 0.
         norm_class_idx: 0
      -
         depth: 4
         value: 1.
         norm_class_idx: 1
         splits:
            - { var:2, quality:3.3067440625000000e+05,
                le:9.8500003814697266e+00 }
      -
         depth: 5
         value: 0.
         norm_class_idx: 0
         splits:
            - { var:0, quality:2.6627138671875000e+04,
                le:3.2950000762939453e+01 }
      -
         depth: 6
         value: 0.
         norm_class_idx: 0
         splits:
            - { var:2, quality:2.6402470703125000e+03,
                le:8.0500001907348633e+00 }
      -
         depth: 7
         value: 0.
         norm_class_idx: 0
         splits:
            - { var:2, quality:1.7948823242187500e+03,
                le:7.9499998092651367e+00 }
      -
         depth: 8
         value: 0.
         norm_class_idx: 0
      -
         depth: 8
         value: 0.
         norm_class_idx: 0
         splits:
            - { var:0, quality:2.9384614944458008e+01,
                le:3.1349998474121094e+01 }
      -
         depth: 9
         value: 1.
         norm_class_idx: 1
      -
         depth: 9
         value: 0.
         norm_class_idx: 0
      -
         depth: 7
         value: 1.
         norm_class_idx: 1
         splits:
            - { var:1, quality:8.9616503906250000e+02,
                le:3.6049999237060547e+01 }
      -
         depth: 8
         value: 0.
         norm_class_idx: 0
      -
         depth: 8
         value: 1.
         norm_class_idx: 1
         splits:
            - { var:2, quality:8.8848437500000000e+02,
                le:8.5500001907348633e+00 }
      -
         depth: 9
         value: 1.
         norm_class_idx: 1
         splits:
            - { var:0, quality:1.2767175292968750e+02,
                le:3.2150001525878906e+01 }
      -
         depth: 10
         value: 1.
         norm_class_idx: 1
      -
         depth: 10
         value: 0.
         norm_class_idx: 0
      -
         depth: 9
         value: 1.
         norm_class_idx: 1
         splits:
            - { var:0, quality:8.0920623779296875e+02,
                le:3.2049999237060547e+01 }
      -
         depth: 10
         value: 1.
         norm_class_idx: 1
      -
         depth: 10
         value: 1.
         norm_class_idx: 1
      -
         depth: 6
         value: 0.
         norm_class_idx: 0
         splits:
            - { var:2, quality:2.4957242187500000e+04,
                le:9.3500003814697266e+00 }
      -
         depth: 7
         value: 0.
         norm_class_idx: 0
         splits:
            - { var:0, quality:2.3214988281250000e+04,
                le:3.3450000762939453e+01 }
      -
         depth: 8
         value: 0.
         norm_class_idx: 0
         splits:
            - { var:1, quality:6.1107043457031250e+02,
                le:3.8950000762939453e+01 }
      -
         depth: 9
         value: 0.
         norm_class_idx: 0
      -
         depth: 9
         value: 1.
         norm_class_idx: 1
         splits:
            - { var:2, quality:5.0259258270263672e+01,
                le:8.7999992370605469e+00 }
      -
         depth: 10
         value: 0.
         norm_class_idx: 0
      -
         depth: 10
         value: 1.
         norm_class_idx: 1
      -
         depth: 8
         value: 0.
         norm_class_idx: 0
         splits:
            - { var:2, quality:2.2645535156250000e+04,
                le:9.2500000000000000e+00 }
      -
         depth: 9
         value: 0.
         norm_class_idx: 0
      -
         depth: 9
         value: 0.
         norm_class_idx: 0
         splits:
            - { var:0, quality:5.0957144165039062e+02,
                le:3.4400001525878906e+01 }
      -
         depth: 10
         value: 1.
         norm_class_idx: 1
      -
         depth: 10
         value: 0.
         norm_class_idx: 0
      -
         depth: 7
         value: 0.
         norm_class_idx: 0
         splits:
            - { var:0, quality:1.9470952148437500e+03,
                le:3.5849998474121094e+01 }
      -
         depth: 8
         value: 1.
         norm_class_idx: 1
         splits:
            - { var:1, quality:1.9077706909179688e+02,
                le:3.9049999237060547e+01 }
      -
         depth: 9
         value: 0.
         norm_class_idx: 0
      -
         depth: 9
         value: 1.
         norm_class_idx: 1
         splits:
            - { var:1, quality:1.8066667175292969e+02, le:43. }
      -
         depth: 10
         value: 1.
         norm_class_idx: 1
      -
         depth: 10
         value: 0.
         norm_class_idx: 0
      -
         depth: 8
         value: 0.
         norm_class_idx: 0
      -
         depth: 5
         value: 1.
         norm_class_idx: 1
         splits:
            - { var:2, quality:3.0876031250000000e+05,
                le:2.0750000000000000e+01 }
      -
         depth: 6
         value: 1.
         norm_class_idx: 1
         splits:
            - { var:2, quality:3.0620234375000000e+05,
                le:1.7849998474121094e+01 }
      -
         depth: 7
         value: 1.
         norm_class_idx: 1
         splits:
            - { var:0, quality:1.8253412500000000e+05,
                le:4.2450000762939453e+01 }
      -
         depth: 8
         value: 1.
         norm_class_idx: 1
         splits:
            - { var:0, quality:1.7032229687500000e+05,
                le:3.6950000762939453e+01 }
      -
         depth: 9
         value: 1.
         norm_class_idx: 1
         splits:
            - { var:2, quality:1.0652116406250000e+05,
                le:1.3250000000000000e+01 }
      -
         depth: 10
         value: 1.
         norm_class_idx: 1
      -
         depth: 10
         value: 1.
         norm_class_idx: 1
      -
         depth: 9
         value: 1.
         norm_class_idx: 1
         splits:
            - { var:2, quality:6.7578976562500000e+04,
                le:1.5449999809265137e+01 }
      -
         depth: 10
         value: 0.
         norm_class_idx: 0
      -
         depth: 10
         value: 1.
         norm_class_idx: 1
      -
         depth: 8
         value: 0.
         norm_class_idx: 0
         splits:
            - { var:2, quality:1.4451421875000000e+04,
                le:1.7150001525878906e+01 }
      -
         depth: 9
         value: 0.
         norm_class_idx: 0
         splits:
            - { var:2, quality:9.9569023437500000e+03,
                le:1.3449999809265137e+01 }
      -
         depth: 10
         value: 0.
         norm_class_idx: 0
      -
         depth: 10
         value: 0.
         norm_class_idx: 0
      -
         depth: 9
         value: 1.
         norm_class_idx: 1
         splits:
            - { var:0, quality:5.0834824218750000e+03,
                le:4.4950000762939453e+01 }
      -
         depth: 10
         value: 1.
         norm_class_idx: 1
      -
         depth: 10
         value: 1.
         norm_class_idx: 1
      -
         depth: 7
         value: 1.
         norm_class_idx: 1
         splits:
            - { var:0, quality:1.3399403125000000e+05,
                le:3.7049999237060547e+01 }
      -
         depth: 8
         value: 0.
         norm_class_idx: 0
         splits:
            - { var:2, quality:8.7653876953125000e+03,
                le:1.8750000000000000e+01 }
      -
         depth: 9
         value: 1.
         norm_class_idx: 1
         splits:
            - { var:0, quality:4.8270981445312500e+03,
                le:3.4349998474121094e+01 }
      -
         depth: 10
         value: 0.
         norm_class_idx: 0
      -
         depth: 10
         value: 1.
         norm_class_idx: 1
      -
         depth: 9
         value: 0.
         norm_class_idx: 0
         splits:
            - { var:0, quality:4.8669956054687500e+03,
                le:3.6049999237060547e+01 }
      -
         depth: 10
         value: 0.
         norm_class_idx: 0
      -
         depth: 10
         value: 0.
         norm_class_idx: 0
      -
         depth: 8
         value: 1.
         norm_class_idx: 1
         splits:
            - { var:0, quality:1.2797234375000000e+05,
                le:4.0950000762939453e+01 }
      -
         depth: 9
         value: 1.
         norm_class_idx: 1
         splits:
            - { var:2, quality:3.9447609375000000e+04,
                le:1.9150001525878906e+01 }
      -
         depth: 10
         value: 1.
         norm_class_idx: 1
      -
         depth: 10
         value: 1.
         norm_class_idx: 1
      -
         depth: 9
         value: 1.
         norm_class_idx: 1
         splits:
            - { var:0, quality:9.0238812500000000e+04,
                le:4.5049999237060547e+01 }
      -
         depth: 10
         value: 1.
         norm_class_idx: 1
      -
         depth: 10
         value: 1.
         norm_class_idx: 1
      -
         depth: 6
         value: 0.
         norm_class_idx: 0
         splits:
            - { var:0, quality:6.4746274414062500e+03,
                le:4.0750000000000000e+01 }
      -
         depth: 7
         value: 0.
         norm_class_idx: 0
         splits:
            - { var:1, quality:4.4435063476562500e+03,
                le:5.5250000000000000e+01 }
      -
         depth: 8
         value: 0.
         norm_class_idx: 0
         splits:
            - { var:1, quality:2.7138017578125000e+03,
                le:5.4750000000000000e+01 }
      -
         depth: 9
         value: 0.
         norm_class_idx: 0
         splits:
            - { var:0, quality:2.4572519531250000e+03,
                le:3.5650001525878906e+01 }
      -
         depth: 10
         value: 0.
         norm_class_idx: 0
      -
         depth: 10
         value: 0.
         norm_class_idx: 0
      -
         depth: 9
         value: 0.
         norm_class_idx: 0
         splits:
            - { var:2, quality:2.7032653808593750e+02,
                le:2.0950000762939453e+01 }
      -
         depth: 10
         value: 0.
         norm_class_idx: 0
      -
         depth: 10
         value: 0.
         norm_class_idx: 0
      -
         depth: 8
         value: 0.
         norm_class_idx: 0
         splits:
            - { var:2, quality:1.7587849121093750e+03,
                le:2.1049999237060547e+01 }
      -
         depth: 9
         value: 0.
         norm_class_idx: 0
         splits:
            - { var:0, quality:3.8688418579101562e+02,
                le:4.0250000000000000e+01 }
      -
         depth: 10
         value: 0.
         norm_class_idx: 0
      -
         depth: 10
         value: 1.
         norm_class_idx: 1
      -
         depth: 9
         value: 0.
         norm_class_idx: 0
         splits:
            - { var:0, quality:1.4320286865234375e+03,
                le:3.8650001525878906e+01 }
      -
         depth: 10
         value: 0.
         norm_class_idx: 0
      -
         depth: 10
         value: 0.
         norm_class_idx: 0
      -
         depth: 7
         value: 1.
         norm_class_idx: 1
         splits:
            - { var:2, quality:2.5071879882812500e+03,
                le:2.1450000762939453e+01 }
      -
         depth: 8
         value: 1.
         norm_class_idx: 1
         splits:
            - { var:1, quality:1.6776683349609375e+03,
                le:5.6349998474121094e+01 }
      -
         depth: 9
         value: 0.
         norm_class_idx: 0
      -
         depth: 9
         value: 1.
         norm_class_idx: 1
         splits:
            - { var:0, quality:1.6277518310546875e+03,
                le:4.3549999237060547e+01 }
      -
         depth: 10
         value: 1.
         norm_class_idx: 1
      -
         depth: 10
         value: 1.
         norm_class_idx: 1
      -
         depth: 8
         value: 0.
         norm_class_idx: 0
         splits:
            - { var:2, quality:9.5547515869140625e+02,
                le:2.2049999237060547e+01 }
      -
         depth: 9
         value: 0.
         norm_class_idx: 0
         splits:
            - { var:1, quality:4.5836819458007812e+02,
                le:5.7950000762939453e+01 }
      -
         depth: 10
         value: 0.
         norm_class_idx: 0
      -
         depth: 10
         value: 0.
         norm_class_idx: 0
      -
         depth: 9
         value: 0.
         norm_class_idx: 0
      -
         depth: 2
         value: 1.
         norm_class_idx: 1
         splits:
            - { var:2, quality:7789919., le:1.8349998474121094e+01 }
      -
         depth: 3
         value: 0.
         norm_class_idx: 0
         splits:
            - { var:0, quality:1.2169455078125000e+04,
                le:4.6150001525878906e+01 }
      -
         depth: 4
         value: 1.
         norm_class_idx: 1
         splits:
            - { var:2, quality:2.6836416015625000e+03,
                le:1.7750000000000000e+01 }
      -
         depth: 5
         value: 1.
         norm_class_idx: 1
         splits:
            - { var:0, quality:6.1668939208984375e+02,
                le:4.5549999237060547e+01 }
      -
         depth: 6
         value: 1.
         norm_class_idx: 1
         splits:
            - { var:2, quality:3.6575439453125000e+02,
                le:1.6349998474121094e+01 }
      -
         depth: 7
         value: 0.
         norm_class_idx: 0
      -
         depth: 7
         value: 1.
         norm_class_idx: 1
         splits:
            - { var:0, quality:3.6711111450195312e+02,
                le:4.2599998474121094e+01 }
      -
         depth: 8
         value: 0.
         norm_class_idx: 0
      -
         depth: 8
         value: 1.
         norm_class_idx: 1
         splits:
            - { var:0, quality:3.6693508911132812e+02,
                le:4.5150001525878906e+01 }
      -
         depth: 9
         value: 1.
         norm_class_idx: 1
         splits:
            - { var:0, quality:2.8482009887695312e+02,
                le:4.4500000000000000e+01 }
      -
         depth: 10
         value: 1.
         norm_class_idx: 1
      -
         depth: 10
         value: 1.
         norm_class_idx: 1
      -
         depth: 9
         value: 1.
         norm_class_idx: 1
         splits:
            - { var:1, quality:1.0088636016845703e+02,
                le:5.9150001525878906e+01 }
      -
         depth: 10
         value: 0.
         norm_class_idx: 0
      -
         depth: 10
         value: 1.
         norm_class_idx: 1
      -
         depth: 6
         value: 0.
         norm_class_idx: 0
         splits:
            - { var:1, quality:3.3373031616210938e+02,
                le:5.9549999237060547e+01 }
      -
         depth: 7
         value: 0.
         norm_class_idx: 0
         splits:
            - { var:2, quality:2.2749670410156250e+02,
                le:1.6549999237060547e+01 }
      -
         depth: 8
         value: 1.
         norm_class_idx: 1
         splits:
            - { var:1, quality:4.4954910278320312e+01,
                le:5.8849998474121094e+01 }
      -
         depth: 9
         value: 0.
         norm_class_idx: 0
         splits:
            - { var:2, quality:23., le:1.5700000762939453e+01 }
      -
         depth: 10
         value: 1.
         norm_class_idx: 1
      -
         depth: 10
         value: 0.
         norm_class_idx: 0
      -
         depth: 9
         value: 1.
         norm_class_idx: 1
         splits:
            - { var:0, quality:3.9306121826171875e+01,
                le:4.6049999237060547e+01 }
      -
         depth: 10
         value: 1.
         norm_class_idx: 1
      -
         depth: 10
         value: 0.
         norm_class_idx: 0
      -
         depth: 8
         value: 0.
         norm_class_idx: 0
         splits:
            - { var:2, quality:1.9779438781738281e+02,
                le:1.6950000762939453e+01 }
      -
         depth: 9
         value: 0.
         norm_class_idx: 0
      -
         depth: 9
         value: 0.
         norm_class_idx: 0
         splits:
            - { var:2, quality:1.2892602539062500e+02,
                le:1.7049999237060547e+01 }
      -
         depth: 10
         value: 1.
         norm_class_idx: 1
      -
         depth: 10
         value: 0.
         norm_class_idx: 0
      -
         depth: 7
         value: 1.
         norm_class_idx: 1
         splits:
            - { var:2, quality:1.3320915222167969e+02,
                le:1.7650001525878906e+01 }
      -
         depth: 8
         value: 1.
         norm_class_idx: 1
         splits:
            - { var:0, quality:1.3045118713378906e+02,
                le:4.6049999237060547e+01 }
      -
         depth: 9
         value: 1.
         norm_class_idx: 1
         splits:
            - { var:1, quality:1.2291052246093750e+02,
                le:5.9849998474121094e+01 }
      -
         depth: 10
         value: 1.
         norm_class_idx: 1
      -
         depth: 10
         value: 1.
         norm_class_idx: 1
      -
         depth: 9
         value: 1.
         norm_class_idx: 1
      -
         depth: 8
         value: 0.
         norm_class_idx: 0
      -
         depth: 5
         value: 1.
         norm_class_idx: 1
         splits:
            - { var:0, quality:2.1586315917968750e+03,
                le:4.2950000762939453e+01 }
      -
         depth: 6
         value: 0.
         norm_class_idx: 0
         splits:
            - { var:1, quality:4.2130435943603516e+01,
                le:5.8950000762939453e+01 }
      -
         depth: 7
         value: 1.
         norm_class_idx: 1
         splits:
            - { var:2, quality:31., le:1.8150001525878906e+01 }
      -
         depth: 8
         value: 0.
         norm_class_idx: 0
      -
         depth: 8
         value: 1.
         norm_class_idx: 1
         splits:
            - { var:0, quality:2.8621553421020508e+01,
                le:4.2050003051757812e+01 }
      -
         depth: 9
         value: 1.
         norm_class_idx: 1
      -
         depth: 9
         value: 1.
         norm_class_idx: 1
      -
         depth: 7
         value: 0.
         norm_class_idx: 0
      -
         depth: 6
         value: 1.
         norm_class_idx: 1
         splits:
            - { var:0, quality:2.1333249511718750e+03,
                le:4.5849998474121094e+01 }
      -
         depth: 7
         value: 1.
         norm_class_idx: 1
         splits:
            - { var:0, quality:1.9666612548828125e+03,
                le:4.4250000000000000e+01 }
      -
         depth: 8
         value: 1.
         norm_class_idx: 1
         splits:
            - { var:1, quality:4.3508450317382812e+02,
                le:5.9450000762939453e+01 }
      -
         depth: 9
         value: 1.
         norm_class_idx: 1
         splits:
            - { var:0, quality:3.6279904174804688e+02,
                le:4.3450000762939453e+01 }
      -
         depth: 10
         value: 1.
         norm_class_idx: 1
      -
         depth: 10
         value: 1.
         norm_class_idx: 1
      -
         depth: 9
         value: 1.
         norm_class_idx: 1
         splits:
            - { var:0, quality:7.7777778625488281e+01,
                le:4.3650001525878906e+01 }
      -
         depth: 10
         value: 1.
         norm_class_idx: 1
      -
         depth: 10
         value: 1.
         norm_class_idx: 1
      -
         depth: 8
         value: 1.
         norm_class_idx: 1
         splits:
            - { var:2, quality:1.5378278808593750e+03,
                le:1.7950000762939453e+01 }
      -
         depth: 9
         value: 1.
         norm_class_idx: 1
         splits:
            - { var:0, quality:2.7525604248046875e+02,
                le:4.5650001525878906e+01 }
      -
         depth: 10
         value: 1.
         norm_class_idx: 1
      -
         depth: 10
         value: 1.
         norm_class_idx: 1
      -
         depth: 9
         value: 1.
         norm_class_idx: 1
         splits:
            - { var:1, quality:1.2692071533203125e+03,
                le:5.8849998474121094e+01 }
      -
         depth: 10
         value: 1.
         norm_class_idx: 1
      -
         depth: 10
         value: 1.
         norm_class_idx: 1
      -
         depth: 7
         value: 1.
         norm_class_idx: 1
         splits:
            - { var:1, quality:2.0114285278320312e+02,
                le:5.9250000000000000e+01 }
      -
         depth: 8
         value: 0.
         norm_class_idx: 0
      -
         depth: 8
         value: 1.
         norm_class_idx: 1
         splits:
            - { var:1, quality:1.8262069702148438e+02,
                le:6.0500000000000000e+01 }
      -
         depth: 9
         value: 1.
         norm_class_idx: 1
         splits:
            - { var:1, quality:1.3404296875000000e+02,
                le:5.9549999237060547e+01 }
      -
         depth: 10
         value: 1.
         norm_class_idx: 1
      -
         depth: 10
         value: 1.
         norm_class_idx: 1
      -
         depth: 9
         value: 1.
         norm_class_idx: 1
      -
         depth: 4
         value: 0.
         norm_class_idx: 0
         splits:
            - { var:2, quality:1.0402975585937500e+04,
                le:1.5550000190734863e+01 }
      -
         depth: 5
         value: 0.
         norm_class_idx: 0
         splits:
            - { var:0, quality:4.9516611328125000e+03,
                le:4.9049999237060547e+01 }
      -
         depth: 6
         value: 1.
         norm_class_idx: 1
         splits:
            - { var:0, quality:3.0782608032226562e+01,
                le:4.8150001525878906e+01 }
      -
         depth: 7
         value: 1.
         norm_class_idx: 1
      -
         depth: 7
         value: 0.
         norm_class_idx: 0
         splits:
            - { var:1, quality:25., le:6.1599998474121094e+01 }
      -
         depth: 8
         value: 0.
         norm_class_idx: 0
      -
         depth: 8
         value: 1.
         norm_class_idx: 1
      -
         depth: 6
         value: 0.
         norm_class_idx: 0
         splits:
            - { var:2, quality:4.9332729492187500e+03,
                le:1.4850000381469727e+01 }
      -
         depth: 7
         value: 0.
         norm_class_idx: 0
      -
         depth: 7
         value: 0.
         norm_class_idx: 0
         splits:
            - { var:0, quality:9.0512817382812500e+01,
                le:5.2300003051757812e+01 }
      -
         depth: 8
         value: 1.
         norm_class_idx: 1
         splits:
            - { var:1, quality:2.9769229888916016e+01,
                le:6.1450000762939453e+01 }
      -
         depth: 9
         value: 0.
         norm_class_idx: 0
      -
         depth: 9
         value: 1.
         norm_class_idx: 1
      -
         depth: 8
         value: 0.
         norm_class_idx: 0
      -
         depth: 5
         value: 0.
         norm_class_idx: 0
         splits:
            - { var:1, quality:5.7008808593750000e+03,
                le:6.2849998474121094e+01 }
      -
         depth: 6
         value: 0.
         norm_class_idx: 0
         splits:
            - { var:0, quality:4.9786967773437500e+03,
                le:4.7750000000000000e+01 }
      -
         depth: 7
         value: 0.
         norm_class_idx: 0
         splits:
            - { var:1, quality:2.4987751464843750e+03,
                le:6.0450000762939453e+01 }
      -
         depth: 8
         value: 0.
         norm_class_idx: 0
         splits:
            - { var:2, quality:2.0101771240234375e+03,
                le:1.7950000762939453e+01 }
      -
         depth: 9
         value: 0.
         norm_class_idx: 0
         splits:
            - { var:2, quality:1.8171309814453125e+03,
                le:1.6450000762939453e+01 }
      -
         depth: 10
         value: 1.
         norm_class_idx: 1
      -
         depth: 10
         value: 0.
         norm_class_idx: 0
      -
         depth: 9
         value: 1.
         norm_class_idx: 1
         splits:
            - { var:1, quality:2.9191433715820312e+02,
                le:5.9049999237060547e+01 }
      -
         depth: 10
         value: 0.
         norm_class_idx: 0
      -
         depth: 10
         value: 1.
         norm_class_idx: 1
      -
         depth: 8
         value: 1.
         norm_class_idx: 1
         splits:
            - { var:1, quality:6.0494696044921875e+02,
                le:6.1150001525878906e+01 }
      -
         depth: 9
         value: 1.
         norm_class_idx: 1
         splits:
            - { var:0, quality:2.8207104492187500e+02,
                le:4.6950000762939453e+01 }
      -
         depth: 10
         value: 1.
         norm_class_idx: 1
      -
         depth: 10
         value: 1.
         norm_class_idx: 1
      -
         depth: 9
         value: 1.
         norm_class_idx: 1
         splits:
            - { var:0, quality:3.4497940063476562e+02,
                le:4.7250000000000000e+01 }
      -
         depth: 10
         value: 1.
         norm_class_idx: 1
      -
         depth: 10
         value: 1.
         norm_class_idx: 1
      -
         depth: 7
         value: 0.
         norm_class_idx: 0
         splits:
            - { var:2, quality:2.9349270019531250e+03,
                le:1.6950000762939453e+01 }
      -
         depth: 8
         value: 1.
         norm_class_idx: 1
         splits:
            - { var:0, quality:2.6302325439453125e+02,
                le:5.0150001525878906e+01 }
      -
         depth: 9
         value: 1.
         norm_class_idx: 1
         splits:
            - { var:1, quality:2.5801681518554688e+02,
                le:6.0349998474121094e+01 }
      -
         depth: 10
         value: 0.
         norm_class_idx: 0
      -
         depth: 10
         value: 1.
         norm_class_idx: 1
      -
         depth: 9
         value: 0.
         norm_class_idx: 0
      -
         depth: 8
         value: 0.
         norm_class_idx: 0
         splits:
            - { var:1, quality:2.7806728515625000e+03,
                le:6.1650001525878906e+01 }
      -
         depth: 9
         value: 0.
         norm_class_idx: 0
         splits:
            - { var:0, quality:1.9080894775390625e+03,
                le:4.8650001525878906e+01 }
      -
         depth: 10
         value: 0.
         norm_class_idx: 0
      -
         depth: 10
         value: 0.
         norm_class_idx: 0
      -
         depth: 9
         value: 0.
         norm_class_idx: 0
         splits:
            - { var:0, quality:9.9837030029296875e+02,
                le:4.8750000000000000e+01 }
      -
         depth: 10
         value: 1.
         norm_class_idx: 1
      -
         depth: 10
         value: 0.
         norm_class_idx: 0
      -
         depth: 6
         value: 1.
         norm_class_idx: 1
         splits:
            - { var:0, quality:9.2417773437500000e+02,
                le:4.9450000762939453e+01 }
      -
         depth: 7
         value: 1.
         norm_class_idx: 1
         splits:
            - { var:2, quality:2.1058715820312500e+02,
                le:1.8250000000000000e+01 }
      -
         depth: 8
         value: 1.
         norm_class_idx: 1
         splits:
            - { var:0, quality:2.0318518066406250e+02,
                le:4.8950000762939453e+01 }
      -
         depth: 9
         value: 1.
         norm_class_idx: 1
      -
         depth: 9
         value: 1.
         norm_class_idx: 1
         splits:
            - { var:1, quality:9.4666664123535156e+01,
                le:6.3449996948242188e+01 }
      -
         depth: 10
         value: 1.
         norm_class_idx: 1
      -
         depth: 10
         value: 1.
         norm_class_idx: 1
      -
         depth: 8
         value: 0.
         norm_class_idx: 0
      -
         depth: 7
         value: 1.
         norm_class_idx: 1
         splits:
            - { var:1, quality:7.7388049316406250e+02,
                le:7.2250000000000000e+01 }
      -
         depth: 8
         value: 1.
         norm_class_idx: 1
         splits:
            - { var:1, quality:7.5020849609375000e+02,
                le:6.5149993896484375e+01 }
      -
         depth: 9
         value: 0.
         norm_class_idx: 0
         splits:
            - { var:0, quality:4.6999102783203125e+02,
                le:5.1049999237060547e+01 }
      -
         depth: 10
         value: 1.
         norm_class_idx: 1
      -
         depth: 10
         value: 0.
         norm_class_idx: 0
      -
         depth: 9
         value: 1.
         norm_class_idx: 1
         splits:
            - { var:2, quality:3.6044177246093750e+02,
                le:1.5949999809265137e+01 }
      -
         depth: 10
         value: 0.
         norm_class_idx: 0
      -
         depth: 10
         value: 1.
         norm_class_idx: 1
      -
         depth: 8
         value: 0.
         norm_class_idx: 0
      -
         depth: 3
         value: 1.
         norm_class_idx: 1
         splits:
            - { var:0, quality:7.7886675000000000e+06,
                le:6.2549999237060547e+01 }
      -
         depth: 4
         value: 1.
         norm_class_idx: 1
         splits:
            - { var:2, quality:2231696., le:2.8950000762939453e+01 }
      -
         depth: 5
         value: 1.
         norm_class_idx: 1
         splits:
            - { var:0, quality:2.1899562500000000e+06,
                le:4.3049999237060547e+01 }
      -
         depth: 6
         value: 1.
         norm_class_idx: 1
         splits:
            - { var:2, quality:7.0508369140625000e+03,
                le:2.1549999237060547e+01 }
      -
         depth: 7
         value: 1.
         norm_class_idx: 1
         splits:
            - { var:0, quality:4.0889526367187500e+03,
                le:4.2049999237060547e+01 }
      -
         depth: 8
         value: 0.
         norm_class_idx: 0
         splits:
            - { var:0, quality:6.3734088134765625e+02,
                le:4.0650001525878906e+01 }
      -
         depth: 9
         value: 0.
         norm_class_idx: 0
      -
         depth: 9
         value: 1.
         norm_class_idx: 1
         splits:
            - { var:1, quality:5.6135675048828125e+02,
                le:5.9450000762939453e+01 }
      -
         depth: 10
         value: 1.
         norm_class_idx: 1
      -
         depth: 10
         value: 0.
         norm_class_idx: 0
      -
         depth: 8
         value: 1.
         norm_class_idx: 1
         splits:
            - { var:1, quality:3.5904487304687500e+03,
                le:5.9450000762939453e+01 }
      -
         depth: 9
         value: 1.
         norm_class_idx: 1
         splits:
            - { var:2, quality:2.6470305175781250e+03,
                le:2.0650001525878906e+01 }
      -
         depth: 10
         value: 1.
         norm_class_idx: 1
      -
         depth: 10
         value: 1.
         norm_class_idx: 1
      -
         depth: 9
         value: 1.
         norm_class_idx: 1
         splits:
            - { var:2, quality:1.0001157836914062e+03,
                le:1.9750000000000000e+01 }
      -
         depth: 10
         value: 1.
         norm_class_idx: 1
      -
         depth: 10
         value: 1.
         norm_class_idx: 1
      -
         depth: 7
         value: 0.
         norm_class_idx: 0
         splits:
            - { var:2, quality:3.4265405273437500e+03,
                le:2.4150001525878906e+01 }
      -
         depth: 8
         value: 0.
         norm_class_idx: 0
         splits:
            - { var:2, quality:2.6637023925781250e+03,
                le:2.2349998474121094e+01 }
      -
         depth: 9
         value: 0.
         norm_class_idx: 0
         splits:
            - { var:0, quality:8.9417358398437500e+02,
                le:4.1750000000000000e+01 }
      -
         depth: 10
         value: 0.
         norm_class_idx: 0
      -
         depth: 10
         value: 1.
         norm_class_idx: 1
      -
         depth: 9
         value: 0.
         norm_class_idx: 0
         splits:
            - { var:2, quality:1.9562929687500000e+03,
                le:2.3849998474121094e+01 }
      -
         depth: 10
         value: 0.
         norm_class_idx: 0
      -
         depth: 10
         value: 0.
         norm_class_idx: 0
      -
         depth: 8
         value: 1.
         norm_class_idx: 1
         splits:
            - { var:2, quality:1.0393823242187500e+03,
                le:2.6349998474121094e+01 }
      -
         depth: 9
         value: 1.
         norm_class_idx: 1
         splits:
            - { var:1, quality:9.9789154052734375e+02,
                le:6.4550003051757812e+01 }
      -
         depth: 10
         value: 1.
         norm_class_idx: 1
      -
         depth: 10
         value: 1.
         norm_class_idx: 1
      -
         depth: 9
         value: 0.
         norm_class_idx: 0
      -
         depth: 6
         value: 1.
         norm_class_idx: 1
         splits:
            - { var:0, quality:2.1851942500000000e+06,
                le:4.7049999237060547e+01 }
      -
         depth: 7
         value: 1.
         norm_class_idx: 1
         splits:
            - { var:2, quality:2.0707557812500000e+05,
                le:2.1950000762939453e+01 }
      -
         depth: 8
         value: 1.
         norm_class_idx: 1
         splits:
            - { var:2, quality:1.9531103125000000e+05,
                le:2.1049999237060547e+01 }
      -
         depth: 9
         value: 1.
         norm_class_idx: 1
         splits:
            - { var:1, quality:1.7002223437500000e+05,
                le:6.3049999237060547e+01 }
      -
         depth: 10
         value: 1.
         norm_class_idx: 1
      -
         depth: 10
         value: 1.
         norm_class_idx: 1
      -
         depth: 9
         value: 1.
         norm_class_idx: 1
         splits:
            - { var:0, quality:2.5649958984375000e+04,
                le:4.6150001525878906e+01 }
      -
         depth: 10
         value: 1.
         norm_class_idx: 1
      -
         depth: 10
         value: 1.
         norm_class_idx: 1
      -
         depth: 8
         value: 0.
         norm_class_idx: 0
         splits:
            - { var:0, quality:1.3386876953125000e+04,
                le:4.6150001525878906e+01 }
      -
         depth: 9
         value: 0.
         norm_class_idx: 0
         splits:
            - { var:1, quality:8.7067158203125000e+03,
                le:6.2450000762939453e+01 }
      -
         depth: 10
         value: 0.
         norm_class_idx: 0
      -
         depth: 10
         value: 0.
         norm_class_idx: 0
      -
         depth: 9
         value: 1.
         norm_class_idx: 1
         splits:
            - { var:2, quality:5.4560952148437500e+03,
                le:2.2950000762939453e+01 }
      -
         depth: 10
         value: 1.
         norm_class_idx: 1
      -
         depth: 10
         value: 0.
         norm_class_idx: 0
      -
         depth: 7
         value: 1.
         norm_class_idx: 1
         splits:
            - { var:2, quality:1.9916572500000000e+06,
                le:1.9450000762939453e+01 }
      -
         depth: 8
         value: 1.
         norm_class_idx: 1
         splits:
            - { var:0, quality:8.9300146484375000e+03,
                le:4.8849998474121094e+01 }
      -
         depth: 9
         value: 1.
         norm_class_idx: 1
         splits:
            - { var:2, quality:4.7404868164062500e+03,
                le:1.8750000000000000e+01 }
      -
         depth: 10
         value: 1.
         norm_class_idx: 1
      -
         depth: 10
         value: 1.
         norm_class_idx: 1
      -
         depth: 9
         value: 0.
         norm_class_idx: 0
         splits:
            - { var:1, quality:4.4548422851562500e+03,
                le:6.9449996948242188e+01 }
      -
         depth: 10
         value: 0.
         norm_class_idx: 0
      -
         depth: 10
         value: 1.
         norm_class_idx: 1
      -
         depth: 8
         value: 1.
         norm_class_idx: 1
         splits:
            - { var:2, quality:1.9857005000000000e+06,
                le:2.7049999237060547e+01 }
      -
         depth: 9
         value: 1.
         norm_class_idx: 1
         splits:
            - { var:2, quality:1765419., le:2.0250000000000000e+01 }
      -
         depth: 10
         value: 1.
         norm_class_idx: 1
      -
         depth: 10
         value: 1.
         norm_class_idx: 1
      -
         depth: 9
         value: 1.
         norm_class_idx: 1
         splits:
            - { var:1, quality:2.2430640625000000e+05,
                le:7.1449996948242188e+01 }
      -
         depth: 10
         value: 0.
         norm_class_idx: 0
      -
         depth: 10
         value: 1.
         norm_class_idx: 1
      -
         depth: 5
         value: 1.
         norm_class_idx: 1
         splits:
            - { var:1, quality:4.9154980468750000e+04,
                le:7.8350006103515625e+01 }
      -
         depth: 6
         value: 0.
         norm_class_idx: 0
         splits:
            - { var:2, quality:6.5262758789062500e+03,
                le:3.0049999237060547e+01 }
      -
         depth: 7
         value: 0.
         norm_class_idx: 0
         splits:
            - { var:1, quality:2.8729833984375000e+03,
                le:7.5050003051757812e+01 }
      -
         depth: 8
         value: 0.
         norm_class_idx: 0
         splits:
            - { var:1, quality:9.2888372802734375e+02,
                le:7.4550003051757812e+01 }
      -
         depth: 9
         value: 0.
         norm_class_idx: 0
      -
         depth: 9
         value: 0.
         norm_class_idx: 0
         splits:
            - { var:2, quality:1.9114035034179688e+02,
                le:2.9250000000000000e+01 }
      -
         depth: 10
         value: 1.
         norm_class_idx: 1
      -
         depth: 10
         value: 0.
         norm_class_idx: 0
      -
         depth: 8
         value: 1.
         norm_class_idx: 1
         splits:
            - { var:0, quality:2.6101420898437500e+03,
                le:5.5349998474121094e+01 }
      -
         depth: 9
         value: 1.
         norm_class_idx: 1
         splits:
            - { var:1, quality:1.7378011474609375e+03,
                le:7.6050003051757812e+01 }
      -
         depth: 10
         value: 1.
         norm_class_idx: 1
      -
         depth: 10
         value: 1.
         norm_class_idx: 1
      -
         depth: 9
         value: 0.
         norm_class_idx: 0
         splits:
            - { var:1, quality:9.8206256103515625e+02,
                le:7.7649993896484375e+01 }
      -
         depth: 10
         value: 0.
         norm_class_idx: 0
      -
         depth: 10
         value: 0.
         norm_class_idx: 0
      -
         depth: 7
         value: 0.
         norm_class_idx: 0
         splits:
            - { var:2, quality:4.1719370117187500e+03,
                le:3.0250000000000000e+01 }
      -
         depth: 8
         value: 0.
         norm_class_idx: 0
         splits:
            - { var:1, quality:4.5710366821289062e+02,
                le:7.6750000000000000e+01 }
      -
         depth: 9
         value: 0.
         norm_class_idx: 0
      -
         depth: 9
         value: 0.
         norm_class_idx: 0
         splits:
            - { var:0, quality:2.3557458496093750e+02, le:55. }
      -
         depth: 10
         value: 1.
         norm_class_idx: 1
      -
         depth: 10
         value: 0.
         norm_class_idx: 0
      -
         depth: 8
         value: 0.
         norm_class_idx: 0
         splits:
            - { var:1, quality:3.7878876953125000e+03,
                le:7.7449996948242188e+01 }
      -
         depth: 9
         value: 0.
         norm_class_idx: 0
         splits:
            - { var:2, quality:2.9204963378906250e+03,
                le:3.0450000762939453e+01 }
      -
         depth: 10
         value: 0.
         norm_class_idx: 0
      -
         depth: 10
         value: 0.
         norm_class_idx: 0
      -
         depth: 9
         value: 0.
         norm_class_idx: 0
         splits:
            - { var:0, quality:9.3280914306640625e+02,
                le:5.3849998474121094e+01 }
      -
         depth: 10
         value: 1.
         norm_class_idx: 1
      -
         depth: 10
         value: 0.
         norm_class_idx: 0
      -
         depth: 6
         value: 1.
         norm_class_idx: 1
         splits:
            - { var:1, quality:4.4490664062500000e+04,
                le:8.2350006103515625e+01 }
      -
         depth: 7
         value: 1.
         norm_class_idx: 1
         splits:
            - { var:2, quality:1.2106595703125000e+04,
                le:2.9750000000000000e+01 }
      -
         depth: 8
         value: 1.
         norm_class_idx: 1
         splits:
            - { var:2, quality:6.5483447265625000e+03,
                le:2.9250000000000000e+01 }
      -
         depth: 9
         value: 1.
         norm_class_idx: 1
         splits:
            - { var:0, quality:3.2663186035156250e+03,
                le:5.4349998474121094e+01 }
      -
         depth: 10
         value: 1.
         norm_class_idx: 1
      -
         depth: 10
         value: 1.
         norm_class_idx: 1
      -
         depth: 9
         value: 1.
         norm_class_idx: 1
         splits:
            - { var:0, quality:3.3287365722656250e+03,
                le:5.5349998474121094e+01 }
      -
         depth: 10
         value: 1.
         norm_class_idx: 1
      -
         depth: 10
         value: 1.
         norm_class_idx: 1
      -
         depth: 8
         value: 0.
         norm_class_idx: 0
         splits:
            - { var:0, quality:5.9211533203125000e+03,
                le:5.8349998474121094e+01 }
      -
         depth: 9
         value: 1.
         norm_class_idx: 1
         splits:
            - { var:2, quality:4.9911572265625000e+03,
                le:3.2150001525878906e+01 }
      -
         depth: 10
         value: 1.
         norm_class_idx: 1
      -
         depth: 10
         value: 0.
         norm_class_idx: 0
      -
         depth: 9
         value: 0.
         norm_class_idx: 0
         splits:
            - { var:2, quality:1.2577379150390625e+03,
                le:3.0349998474121094e+01 }
      -
         depth: 10
         value: 0.
         norm_class_idx: 0
      -
         depth: 10
         value: 0.
         norm_class_idx: 0
      -
         depth: 7
         value: 1.
         norm_class_idx: 1
         splits:
            - { var:2, quality:3.3709011718750000e+04,
                le:3.5049999237060547e+01 }
      -
         depth: 8
         value: 1.
         norm_class_idx: 1
         splits:
            - { var:1, quality:3.3635859375000000e+04,
                le:8.6050003051757812e+01 }
      -
         depth: 9
         value: 1.
         norm_class_idx: 1
         splits:
            - { var:2, quality:1.8788064453125000e+04,
                le:3.2349998474121094e+01 }
      -
         depth: 10
         value: 1.
         norm_class_idx: 1
      -
         depth: 10
         value: 0.
         norm_class_idx: 0
      -
         depth: 9
         value: 1.
         norm_class_idx: 1
         splits:
            - { var:2, quality:1.5277052734375000e+04,
                le:3.2549999237060547e+01 }
      -
         depth: 10
         value: 1.
         norm_class_idx: 1
      -
         depth: 10
         value: 1.
         norm_class_idx: 1
      -
         depth: 8
         value: 0.
         norm_class_idx: 0
         splits:
            - { var:1, quality:4.1701123046875000e+02,
                le:9.0949996948242188e+01 }
      -
         depth: 9
         value: 0.
         norm_class_idx: 0
         splits:
            - { var:2, quality:3.8225000000000000e+02,
                le:3.5250000000000000e+01 }
      -
         depth: 10
         value: 0.
         norm_class_idx: 0
      -
         depth: 10
         value: 0.
         norm_class_idx: 0
      -
         depth: 9
         value: 0.
         norm_class_idx: 0
         splits:
            - { var:2, quality:81., le:3.6400001525878906e+01 }
      -
         depth: 10
         value: 1.
         norm_class_idx: 1
      -
         depth: 10
         value: 0.
         norm_class_idx: 0
      -
         depth: 4
         value: 1.
         norm_class_idx: 1
         splits:
            - { var:0, quality:5.5672125000000000e+06,
                le:7.6350006103515625e+01 }
      -
         depth: 5
         value: 1.
         norm_class_idx: 1
         splits:
            - { var:2, quality:2.7109155000000000e+06,
                le:3.8150001525878906e+01 }
      -
         depth: 6
         value: 1.
         norm_class_idx: 1
         splits:
            - { var:2, quality:2.7059165000000000e+06,
                le:3.7150001525878906e+01 }
      -
         depth: 7
         value: 1.
         norm_class_idx: 1
         splits:
            - { var:2, quality:2.7052012500000000e+06,
                le:2.5650001525878906e+01 }
      -
         depth: 8
         value: 1.
         norm_class_idx: 1
         splits:
            - { var:0, quality:2.7685730468750000e+04,
                le:6.5850006103515625e+01 }
      -
         depth: 9
         value: 1.
         norm_class_idx: 1
         splits:
            - { var:2, quality:2.3292074218750000e+04,
                le:2.4650001525878906e+01 }
      -
         depth: 10
         value: 1.
         norm_class_idx: 1
      -
         depth: 10
         value: 1.
         norm_class_idx: 1
      -
         depth: 9
         value: 1.
         norm_class_idx: 1
         splits:
            - { var:2, quality:4.6398203125000000e+03,
                le:2.4650001525878906e+01 }
      -
         depth: 10
         value: 1.
         norm_class_idx: 1
      -
         depth: 10
         value: 1.
         norm_class_idx: 1
      -
         depth: 8
         value: 1.
         norm_class_idx: 1
         splits:
            - { var:0, quality:2.6777332500000000e+06,
                le:6.7149993896484375e+01 }
      -
         depth: 9
         value: 1.
         norm_class_idx: 1
         splits:
            - { var:2, quality:9.8239225000000000e+05,
                le:3.0250000000000000e+01 }
      -
         depth: 10
         value: 1.
         norm_class_idx: 1
      -
         depth: 10
         value: 1.
         norm_class_idx: 1
      -
         depth: 9
         value: 1.
         norm_class_idx: 1
         splits:
            - { var:2, quality:1.6975741250000000e+06,
                le:2.8150001525878906e+01 }
      -
         depth: 10
         value: 1.
         norm_class_idx: 1
      -
         depth: 10
         value: 1.
         norm_class_idx: 1
      -
         depth: 7
         value: 1.
         norm_class_idx: 1
         splits:
            - { var:1, quality:1.3342182617187500e+03,
                le:9.7449996948242188e+01 }
      -
         depth: 8
         value: 0.
         norm_class_idx: 0
      -
         depth: 8
         value: 1.
         norm_class_idx: 1
         splits:
            - { var:1, quality:1.0877280273437500e+03,
                le:1.0385000610351562e+02 }
      -
         depth: 9
         value: 1.
         norm_class_idx: 1
         splits:
            - { var:0, quality:1.4265412902832031e+02,
                le:7.5050003051757812e+01 }
      -
         depth: 10
         value: 0.
         norm_class_idx: 0
      -
         depth: 10
         value: 1.
         norm_class_idx: 1
      -
         depth: 9
         value: 1.
         norm_class_idx: 1
         splits:
            - { var:1, quality:9.7053082275390625e+02,
                le:1.0705000305175781e+02 }
      -
         depth: 10
         value: 1.
         norm_class_idx: 1
      -
         depth: 10
         value: 1.
         norm_class_idx: 1
      -
         depth: 6
         value: 0.
         norm_class_idx: 0
         splits:
            - { var:2, quality:5.4562573242187500e+03,
                le:3.8750000000000000e+01 }
      -
         depth: 7
         value: 0.
         norm_class_idx: 0
         splits:
            - { var:1, quality:5.3813024902343750e+02,
                le:1.0475000000000000e+02 }
      -
         depth: 8
         value: 0.
         norm_class_idx: 0
         splits:
            - { var:0, quality:3.1371697998046875e+02,
                le:7.5500000000000000e+01 }
      -
         depth: 9
         value: 0.
         norm_class_idx: 0
         splits:
            - { var:1, quality:3.1084313964843750e+02,
                le:9.8449996948242188e+01 }
      -
         depth: 10
         value: 0.
         norm_class_idx: 0
      -
         depth: 10
         value: 0.
         norm_class_idx: 0
      -
         depth: 9
         value: 1.
         norm_class_idx: 1
      -
         depth: 8
         value: 1.
         norm_class_idx: 1
         splits:
            - { var:1, quality:2.3778260803222656e+02,
                le:1.0594999694824219e+02 }
      -
         depth: 9
         value: 1.
         norm_class_idx: 1
      -
         depth: 9
         value: 1.
         norm_class_idx: 1
      -
         depth: 7
         value: 0.
         norm_class_idx: 0
         splits:
            - { var:2, quality:5.1716787109375000e+03,
                le:3.9349998474121094e+01 }
      -
         depth: 8
         value: 0.
         norm_class_idx: 0
         splits:
            - { var:1, quality:4.9043243408203125e+02,
                le:1.0605000305175781e+02 }
      -
         depth: 9
         value: 0.
         norm_class_idx: 0
      -
         depth: 9
         value: 1.
         norm_class_idx: 1
         splits:
            - { var:0, quality:6.8246574401855469e+01,
                le:7.6250000000000000e+01 }
      -
         depth: 10
         value: 1.
         norm_class_idx: 1
      -
         depth: 10
         value: 0.
         norm_class_idx: 0
      -
         depth: 8
         value: 0.
         norm_class_idx: 0
      -
         depth: 5
         value: 1.
         norm_class_idx: 1
         splits:
            - { var:2, quality:2.8665147500000000e+06,
                le:3.4450000762939453e+01 }
      -
         depth: 6
         value: 1.
         norm_class_idx: 1
         splits:
            - { var:0, quality:2.4768490625000000e+05,
                le:8.2550003051757812e+01 }
      -
         depth: 7
         value: 1.
         norm_class_idx: 1
         splits:
            - { var:0, quality:2.3352068750000000e+05,
                le:8.1449996948242188e+01 }
      -
         depth: 8
         value: 1.
         norm_class_idx: 1
         splits:
            - { var:1, quality:2.2458095312500000e+05,
                le:1.0144999694824219e+02 }
      -
         depth: 9
         value: 1.
         norm_class_idx: 1
         splits:
            - { var:2, quality:4.7286488281250000e+04,
                le:3.0450000762939453e+01 }
      -
         depth: 10
         value: 1.
         norm_class_idx: 1
      -
         depth: 10
         value: 1.
         norm_class_idx: 1
      -
         depth: 9
         value: 1.
         norm_class_idx: 1
         splits:
            - { var:1, quality:1.7730242187500000e+05,
                le:1.1080000305175781e+02 }
      -
         depth: 10
         value: 1.
         norm_class_idx: 1
      -
         depth: 10
         value: 0.
         norm_class_idx: 0
      -
         depth: 8
         value: 1.
         norm_class_idx: 1
         splits:
            - { var:1, quality:9.0160302734375000e+03,
                le:1.0764999389648438e+02 }
      -
         depth: 9
         value: 1.
         norm_class_idx: 1
         splits:
            - { var:2, quality:4.0693786621093750e+03,
                le:3.1549999237060547e+01 }
      -
         depth: 10
         value: 1.
         norm_class_idx: 1
      -
         depth: 10
         value: 1.
         norm_class_idx: 1
      -
         depth: 9
         value: 1.
         norm_class_idx: 1
         splits:
            - { var:2, quality:5.0085966796875000e+03,
                le:3.2599998474121094e+01 }
      -
         depth: 10
         value: 1.
         norm_class_idx: 1
      -
         depth: 10
         value: 1.
         norm_class_idx: 1
      -
         depth: 7
         value: 1.
         norm_class_idx: 1
         splits:
            - { var:2, quality:1.4601530273437500e+04,
                le:3.2250000000000000e+01 }
      -
         depth: 8
         value: 1.
         norm_class_idx: 1
         splits:
            - { var:0, quality:5.6428432617187500e+03,
                le:8.3050003051757812e+01 }
      -
         depth: 9
         value: 1.
         norm_class_idx: 1
         splits:
            - { var:2, quality:5.4192822265625000e+02,
                le:3.2049999237060547e+01 }
      -
         depth: 10
         value: 1.
         norm_class_idx: 1
      -
         depth: 10
         value: 0.
         norm_class_idx: 0
      -
         depth: 9
         value: 1.
         norm_class_idx: 1
         splits:
            - { var:2, quality:5.1537827148437500e+03,
                le:3.1950000762939453e+01 }
      -
         depth: 10
         value: 1.
         norm_class_idx: 1
      -
         depth: 10
         value: 1.
         norm_class_idx: 1
      -
         depth: 8
         value: 1.
         norm_class_idx: 1
         splits:
            - { var:2, quality:9.2184013671875000e+03,
                le:3.3950000762939453e+01 }
      -
         depth: 9
         value: 1.
         norm_class_idx: 1
         splits:
            - { var:1, quality:5.7361962890625000e+03,
                le:1.0864999389648438e+02 }
      -
         depth: 10
         value: 1.
         norm_class_idx: 1
      -
         depth: 10
         value: 1.
         norm_class_idx: 1
      -
         depth: 9
         value: 1.
         norm_class_idx: 1
         splits:
            - { var:0, quality:3.6446972656250000e+03,
                le:8.3750000000000000e+01 }
      -
         depth: 10
         value: 1.
         norm_class_idx: 1
      -
         depth: 10
         value: 1.
         norm_class_idx: 1
      -
         depth: 6
         value: 1.
         norm_class_idx: 1
         splits:
            - { var:0, quality:2620234., le:7.9449996948242188e+01 }
      -
         depth: 7
         value: 1.
         norm_class_idx: 1
         splits:
            - { var:2, quality:2.3199565625000000e+05,
                le:4.0349998474121094e+01 }
      -
         depth: 8
         value: 1.
         norm_class_idx: 1
         splits:
            - { var:1, quality:2.3136504687500000e+05,
                le:1.0675000000000000e+02 }
      -
         depth: 9
         value: 1.
         norm_class_idx: 1
         splits:
            - { var:2, quality:1.4156217187500000e+05,
                le:3.9049999237060547e+01 }
      -
         depth: 10
         value: 1.
         norm_class_idx: 1
      -
         depth: 10
         value: 0.
         norm_class_idx: 0
      -
         depth: 9
         value: 1.
         norm_class_idx: 1
         splits:
            - { var:2, quality:8.9835921875000000e+04,
                le:3.5950000762939453e+01 }
      -
         depth: 10
         value: 1.
         norm_class_idx: 1
      -
         depth: 10
         value: 1.
         norm_class_idx: 1
      -
         depth: 8
         value: 0.
         norm_class_idx: 0
      -
         depth: 7
         value: 1.
         norm_class_idx: 1
         splits:
            - { var:1, quality:2.3894932500000000e+06,
                le:1.0344999694824219e+02 }
      -
         depth: 8
         value: 1.
         norm_class_idx: 1
         splits:
            - { var:2, quality:37., le:3.5299999237060547e+01 }
      -
         depth: 9
         value: 0.
         norm_class_idx: 0
      -
         depth: 9
         value: 1.
         norm_class_idx: 1
      -
         depth: 8
         value: 1.
         norm_class_idx: 1
         splits:
            - { var:2, quality:2.3894877500000000e+06,
                le:4.3049999237060547e+01 }
      -
         depth: 9
         value: 1.
         norm_class_idx: 1
         splits:
            - { var:2, quality:2.0366086250000000e+06,
                le:3.5049999237060547e+01 }
      -
         depth: 10
         value: 1.
         norm_class_idx: 1
      -
         depth: 10
         value: 1.
         norm_class_idx: 1
      -
         depth: 9
         value: 1.
         norm_class_idx: 1
         splits:
            - { var:0, quality:3.5399168750000000e+05,
                le:8.4250000000000000e+01 }
      -
         depth: 10
         value: 0.
         norm_class_idx: 0
      -
         depth: 10
         value: 1.
         norm_class_idx: 1
